tree
version=v3
num_class=1
num_tree_per_iteration=1
label_index=0
max_feature_idx=5
objective=binary sigmoid:1
feature_names=loan_amnt open_acc inq_last_6mths emp_length int_rate fico_range_low
feature_infos=[500:40000] [0:74] [0:8] [0:10] [5.3099999999999996:30.989999999999998] [625:845]
tree_sizes=3140 3489 3481 3486 3495 3492 3480 3499 3493 3490 3506 3487 3499 3499 3489 3490 3503 3501 3487 3505 3492 3517 3509 3501 3472 3516 3501 3478 3500 3499 3506 3481 3496 3517 3519 3510 3527 3493 3529 3517 3525 3498 3524 3491 3526 3515 3506 3522 3517 3494 3514 3511 3513 3519 3505 3524 3517 3526 3543 3504 3525 3496 3526 3533 3522 3512 3521 3526 3484 3517 3525 3524 3534 3534 3490 3521 3529 3524 3490 3481 3517 3515 3540 3531 3532 3526 3483 3528 3533 3531 3533 3475 3516 3537 3525 3545 3546 3539 3512 3515

Tree=0
num_leaves=31
num_cat=0
split_feature=4 4 4 2 2 2 2 2 2 2 2 2 2 2 2 2 2 2 2 0 2 2 2 2 0 4 4 4 4 4
split_gain=138436 29157.6 19797.8 11155.5 61664.2 11083.6 37689.9 9983.63 23438.8 8357.78 28759.8 7832.24 50616.8 5243.21 11168.2 4123.77 16528.2 3456.17 10662.1 3254.97 1766.99 17090.4 1694.79 3827.44 1429.59 1425.5 1418.88 3980.07 2180.88 1563.89
threshold=11.530002364834226 15.610047101228075 7.9002221924550691 1.0000000180025095e-35 0.99998057679780061 1.0000000180025095e-35 0.99998057679780061 1.0001011059636042 1.9999378119080078 1.0001011059636042 1.9999378119080078 1.0000000180025095e-35 0.99998057679780061 2.000094167317954 2.9879296396698867 1.0001011059636042 1.9999378119080078 2.000094167317954 2.9879296396698867 9601.2268457127539 1.0000000180025095e-35 0.99998057679780061 3.0004494513839499 3.9986103450228687 9012.5000000000018 9.9900661241096476 11.989992139308988 11.990067561836968 11.670248210900272 12.119964748531865
decision_type=2 2 2 2 2 2 2 2 2 2 2 2 2 2 2 2 2 2 2 2 2 2 2 2 2 2 2 2 2 2
left_child=2 3 20 26 -5 19 -7 24 -9 -6 -11 25 -13 -10 -15 -14 -17 -12 -19 -3 -1 -22 -16 -24 -8 -4 28 -28 -2 -29
right_child=1 5 11 4 9 6 7 8 13 10 17 12 15 14 22 16 -18 18 -20 -21 21 -23 23 -25 -26 -27 27 29 -30 -31
leaf_value=0.15142607626917792 0.034013768314792761 0.016654780215231629 0.096010425391543155 -0.20006791256404691 0.048487883771769609 -0.20006791256404691 0.028200153458772824 -0.20006791256404691 0.011328624807026851 -0.20006791256404691 0.071187712470222847 -0.20006791256404691 0.10775696709527505 -0.20006791256404691 0.023444095562206668 -0.20006791256404691 0.097800049809626255 -0.20006791256404691 0.055159961867103001 -0.046157777577353731 -0.20006791256404691 0.14979154862259422 -0.20006791256404691 0.0092856707111773611 -0.023238986989575799 0.064113137083155414 0.12103587215919609 -0.11417556384905091 -0.12340124818222496 0.019883426881365098
leaf_weight=30371.5 1848.5 10336.25 28973.75 17335.5 32457.5 23790.75 7016.75 12610.25 12846 7064.5 11317 8107.25 19958.75 4841.5 5410 2403.75 8278.5 2242.25 6061.25 40874.5 1588 11563.5 1337 2517.75 23490.5 27129.5 3986.25 882.5 1680 62379.25
leaf_count=121486 7394 41345 115895 69342 129830 95163 28067 50441 51384 28258 45268 32429 79835 19366 21640 9615 33114 8969 24245 163498 6352 46254 5348 10071 93962 108518 15945 3530 6720 249517
internal_value=-7.54585e-05 -0.0390814 0.0823273 -0.00773424 -0.0342124 -0.0709004 -0.0913172 -0.0543931 -0.0875396 0.0144022 -0.0270569 0.056705 0.0221279 -0.0348906 -0.0769806 0.0809183 0.030773 0.035237 -0.0137609 -0.0334798 0.138167 0.107547 -0.0126587 -0.0633275 -0.0114078 0.0805861 0.0208769 0.0241202 -0.0409351 0.0180133
internal_weight=0 292326 138374 147254 76478 145071 93860.5 70069.8 39562.5 59142.5 26685 94851.5 38748.2 26952.2 14106.2 30641 10682.2 19620.5 8303.5 51210.8 43523 13151.5 9264.75 3854.75 30507.2 56103.2 70776.5 67248 3528.5 63261.8
internal_count=1722801 1169303 553498 589018 305912 580285 375442 280279 158250 236570 106740 379406 154993 107809 56425 122564 42729 78482 33214 204843 174092 52606 37059 15419 122029 224413 283106 268992 14114 253047
shrinkage=1


Tree=1
num_leaves=31
num_cat=0
split_feature=4 4 4 2 2 2 2 2 2 2 2 2 2 2 2 2 2 2 2 0 4 4 4 4 4 4 4 4 4 4
split_gain=112569 23787.8 16222.9 10375.7 56215 7934.2 26659.5 7851.09 25678.9 6872.26 16342.3 6332.7 41333.1 3644.02 8000.07 3346.02 13485.5 3320.59 9956.43 2544.58 1630.33 5201.93 2149.29 1730.54 2364.9 1773.91 1545.71 1802.16 3186.07 1645.17
threshold=11.530002364834226 16.290024024533736 7.9002221924550691 1.0000000180025095e-35 0.99998057679780061 1.0001011059636042 1.9999378119080078 1.0000000180025095e-35 0.99998057679780061 1.0001011059636042 1.9999378119080078 1.0000000180025095e-35 0.99998057679780061 2.000094167317954 2.9879296396698867 1.0001011059636042 1.9999378119080078 2.000094167317954 2.9879296396698867 9812.5000000000018 13.67005454022417 13.974453749184086 13.990036614202952 11.989992139308988 11.990067561836968 11.670248210900272 12.119964748531865 12.120280926816868 12.289982797294332 12.290045684249407
decision_type=2 2 2 2 2 2 2 2 2 2 2 2 2 2 2 2 2 2 2 2 2 2 2 2 2 2 2 2 2 2
left_child=2 3 -1 20 -5 -6 -7 19 -9 -10 -11 -4 -13 -12 -15 -14 -17 -8 -19 -3 23 -22 -23 25 -25 -2 -26 -28 -29 -30
right_child=1 7 11 4 5 6 17 8 9 10 13 12 15 14 -16 16 -18 18 -20 -21 21 22 -24 24 26 -27 27 28 29 -31
leaf_value=0.12517347387330513 0.030689515309074069 0.015066095081631748 0.072722761827292884 -0.18186750456520007 0.041222605415287814 -0.18186750456520007 0.061869242882199131 -0.18186750456520007 -0.015026169333529953 -0.18186750456520007 0.0054901401073626033 -0.18186750456520007 0.097341632014052784 -0.18186750456520007 -0.015272708512071454 -0.18186750456520007 0.088306580543522695 -0.18186750456520007 0.046944985598733016 -0.045556272882351721 -0.15787301782500679 0.073732597162248822 0.00046798839274437209 0.10941471092942223 -0.10303755634413776 -0.11143198940832706 0.14694432686478687 -0.16061313231482827 0.1185908181127406 0.025661856382476853
leaf_weight=43269.15282985568 1847.9654105901718 8619.8416396379471 56008.721992462873 19838.567034065723 36503.306753665209 8217.494797706604 12861.874670654535 20878.872173666954 26437.807595387101 11261.680596411228 11286.388064414263 8026.6608070731163 19900.924260616302 4389.9243292808533 8394.5066258758307 2379.8557975888252 8258.7358723282814 2623.4104626774788 6912.7973709702492 35191.752229422331 1948.557415753603 4597.7955802381039 31010.340246394277 3971.6861307621002 879.63013663887978 1673.6204481124878 1293.8721210956573 884.1626144349575 2044.2979533076286 27970.735532820225
leaf_count=174092 7394 34482 224413 80151 146092 33200 51505 84354 105767 45499 45147 32429 79835 17736 33630 9615 33114 10599 27674 140842 7795 18393 124063 15945 3530 6720 5176 3537 8178 111894
internal_value=0 -0.0352154 0.0744547 -0.0102144 -0.0339771 0.00973539 -0.0278072 -0.0678514 -0.0859925 -0.0535859 -0.0824386 0.0512503 0.0200663 -0.0359202 -0.0724781 0.0731403 0.0278686 0.0287151 -0.0160013 -0.0336289 0.0162357 0.00122203 0.00992807 0.0301356 0.0365038 -0.0368532 0.027748 0.0313215 0.0264799 0.0319912
internal_weight=0 291541 137844 165080 86957.5 67118.9 30615.6 126461 82649.2 61770.3 35332.5 94574.9 38566.2 24070.8 12784.4 30539.5 10638.6 22398.1 9536.21 43811.6 78122.7 37556.7 35608.1 40566 37044.4 3521.59 33072.7 32193.1 30899.2 30015
internal_count=1722801 1169303 553498 661846 349221 269070 122978 507457 332133 247779 142012 379406 154993 96513 51366 122564 42729 89778 38273 175324 312625 150251 142456 162374 148260 14114 132315 128785 123609 120072
shrinkage=0.1


Tree=2
num_leaves=31
num_cat=0
split_feature=4 4 4 2 2 2 2 2 2 2 2 2 2 2 2 2 2 0 2 2 4 4 4 4 4 2 2 4 4 4
split_gain=92653.4 23528.7 9705.17 8638.97 48974.8 7621.3 26342.5 6743.02 16303.9 6348.85 22091.6 3960.37 27426.6 3500.25 7731.25 2708.5 8232.06 2182.82 2006.95 8652.24 1519.36 2231.3 1560.35 3260.65 1497.2 1373.01 3145.45 1361.07 2023.57 1265.3
threshold=10.990042809116378 15.610047101228075 7.9002221924550691 1.0000000180025095e-35 0.99998057679780061 1.0000000180025095e-35 0.99998057679780061 1.0001011059636042 1.9999378119080078 1.0001011059636042 1.9999378119080078 1.0000000180025095e-35 0.99998057679780061 2.000094167317954 2.9879296396698867 2.000094167317954 2.9879296396698867 9601.2268457127539 1.0001011059636042 1.9999378119080078 11.360231688722559 12.990013700570621 12.989617717811671 12.790050941439317 6.4912214949125611 3.0004494513839499 3.9986103450228687 11.140109003240847 11.101458539048318 10.989947028418111
decision_type=2 2 2 2 2 2 2 2 2 2 2 2 2 2 2 2 2 2 2 2 2 2 2 2 2 2 2 2 2 2
left_child=2 3 24 20 -5 17 -7 -8 -9 -6 -11 29 -13 -10 -15 -12 -17 -3 -14 -20 27 22 23 -22 -1 -16 -27 28 -2 -4
right_child=1 5 11 4 9 6 7 8 13 10 15 12 18 14 25 16 -18 -19 19 -21 21 -23 -24 -25 -26 26 -28 -29 -30 -31
leaf_value=0.14078338161874801 -0.13698785762014262 0.013814725431411512 0.067049723207468909 -0.16825391331627973 0.042636931750993923 -0.16825391331627973 -0.0094492419675558745 -0.16825391331627973 0.0090327984174961573 -0.16825391331627973 0.061434610756688379 -0.16825391331627973 0.095484674113048437 -0.16825391331627973 0.022059747650112531 -0.1720591089826356 0.046559966792687306 -0.037637319316175179 -0.16825391331627973 0.087848981148447358 0.042023770965276472 0.0073825873561276321 0.11060702461649292 -0.10206736137666272 0.10099190345478362 -0.1810236205263408 0.0094588452917823279 -0.13354769065321651 0.093735916635667271 0.12112315528920786
leaf_weight=14124.65294675529 607.65113371610641 10333.97927492857 39275.985358312726 18698.992572411895 36892.294077277184 22943.799143448472 30497.811089247465 12161.325017020106 12843.115378037095 7455.0530491322279 12570.241219222546 5837.9953601658344 15250.308907777071 4669.142568141222 5409.2317830920219 2332.4494116157293 6585.2917680740356 40797.642112866044 1676.1271885633469 6194.2098703384399 31404.39703759551 43434.360693976283 2959.7147659957409 1653.142498254776 28606.697815343738 1322.1971552968025 2517.5712657868862 1187.1840945780277 1015.2402234077454 4863.1997368335724
leaf_count=57564 2442 41345 158122 77557 148020 95163 122029 50441 51384 30921 50526 24214 61645 19366 21640 9655 26423 163498 6952 24992 126247 173852 11845 6616 116528 5348 10071 4771 4080 19544
internal_value=0 -0.0285245 0.0762856 -0.00298332 -0.0254335 -0.0582129 -0.0753599 -0.044658 -0.0722458 0.0151313 -0.0199289 0.0541539 0.0254171 -0.0286161 -0.0633569 0.0315311 -0.0106202 -0.0272386 0.0743193 0.0333073 0.0200871 0.022643 0.041046 0.0348181 0.114145 -0.0104021 -0.0561324 -0.0521773 0.00734716 0.0730075
internal_weight=0 310292 115829 166796 84534.3 143496 92364.2 69420.4 38922.6 65835.3 28943 73097.8 28958.6 26761.3 13918.1 21488 8917.74 51131.6 23120.6 7870.34 82261.7 79451.6 36017.3 33057.5 42731.4 9249 3839.77 2810.08 1622.89 44139.2
internal_count=1722801 1253240 469561 672955 343102 580285 375442 280279 158250 265545 117525 295469 117803 107809 56425 86604 36078 204843 93589 31944 329853 318560 144708 132863 174092 37059 15419 11293 6522 177666
shrinkage=0.1


Tree=3
num_leaves=31
num_cat=0
split_feature=4 2 2 4 2 2 2 2 2 2 4 4 2 2 2 2 2 2 0 0 2 2 4 4 4 4 4 3 3 0
split_gain=76386.3 15142 53852.9 13740.3 11456.1 29047.3 5154.4 12317.8 4081.07 29909.1 4012.41 2851.07 2431.49 10254.8 2071.19 17299.1 2024.53 5277.77 1704.86 1482.14 1197.02 4416 1129.48 1040.91 1168.48 1245.97 3496.56 1036.92 2416.71 1004.03
threshold=11.990067561836968 1.0000000180025095e-35 0.99998057679780061 8.2400273388077974 1.0001011059636042 1.9999378119080078 2.000094167317954 2.9879296396698867 1.0000000180025095e-35 0.99998057679780061 16.290024024533736 17.270109072432813 1.0001011059636042 1.9999378119080078 1.0000000180025095e-35 0.99998057679780061 3.0004494513839499 3.9986103450228687 9812.5000000000018 9937.5000000000018 2.000094167317954 2.9879296396698867 17.570016180946961 8.3898906274312441 9.9900661241096476 11.989992139308988 11.670248210900272 9.9999413118525116 9.0001294900952491 9012.5000000000018
decision_type=2 2 2 2 2 2 2 2 2 2 2 2 2 2 2 2 2 2 2 2 2 2 2 2 2 2 2 2 2 2
left_child=3 10 -3 14 11 -6 22 -8 23 -10 19 -4 -11 -14 -1 -16 -9 -18 -12 -2 -15 -22 -7 -5 -25 26 -26 28 -20 -13
right_child=1 2 4 8 5 6 7 16 9 12 18 29 13 20 15 -17 17 -19 27 -21 21 -23 -24 24 25 -27 -28 -29 -30 -31
leaf_value=0.11242262889010697 0.032633309202613085 -0.15768406892218617 0.028133037072960772 -0.079848998884972031 -0.15768406892218617 0.043725329715029376 -0.15761850226187046 0.037818203546316514 -0.15768406892218617 0.075383692822321213 0.012262392778223148 0.024998473092594772 -0.15768406892218617 0.094189768669733595 -0.19044015376962775 0.11048758196745399 -0.18104488487168865 0.026323203939614848 -0.041795125670156648 0.0012718329650839152 -0.20666519415595347 0.080631157539555826 -0.0019147484630457725 0.072445119493889085 0.043998845676151456 0.095779646060819873 -0.10508250095514536 -0.012011145923173689 -0.18786651266550244 -0.028427497070566601
leaf_weight=35805.346248373389 21822.322541475296 36721.231248259544 38221.550305634737 586.06679724156857 17752.322503328323 14332.053608626127 6411.5585832595825 9046.0660072267056 8340.9468238651752 20611.20141659677 8615.9459729343653 4432.2346774041653 2580.9538401663303 6005.0043618679047 2213.1760696470737 13958.465030103922 1781.2053151130676 3947.1138785034418 22836.094519361854 48697.255758360028 684.24298587441444 2453.2356158196926 8722.2925072163343 21416.217111989856 28699.450979098678 3913.1688196957111 1664.4825553894043 11035.773522019386 1191.7579825371504 17044.797245830297
leaf_count=148143 87443 158284 153411 2377 76520 57728 27645 36274 35953 83961 34482 17729 11125 24418 9049 57810 7336 15821 91727 195123 2814 9962 34895 86861 115912 15945 6720 44328 4787 68218
internal_value=0 -0.0315332 -0.0515436 0.0575228 -0.0195149 -0.0496243 -0.00626305 -0.0418698 0.0352833 0.0111503 -0.00377551 0.0117515 0.0547024 0.0183421 0.0990071 0.069304 0.00836099 -0.0381573 -0.0275925 0.0109767 0.0680349 0.0179756 0.026458 0.0527252 0.0541203 0.042671 0.0358265 -0.0373858 -0.0490401 -0.0174019
internal_weight=0 272612 158412 148932 121691 61992.6 44240.3 21185.9 96955 40675.6 114199 59698.6 32334.6 11723.4 51977 16171.6 14774.4 5728.32 43679.6 70519.6 9142.48 3137.48 23054.3 56279.4 55693.3 34277.1 30363.9 35063.6 24027.9 21477
internal_count=1722801 1111751 653861 611050 495577 256219 179699 87076 396048 168233 457890 239358 132280 48319 215002 66859 59431 23157 175324 282566 37194 12776 92623 227815 225438 138577 122632 140842 96514 85947
shrinkage=0.1


Tree=4
num_leaves=31
num_cat=0
split_feature=4 4 2 2 2 2 2 2 2 2 4 0 2 2 4 2 2 4 3 3 2 2 3 3 3 3 3 3 4 4
split_gain=63475.6 16052.6 10217.4 38283.1 7959.43 21394.8 3963 28609 3768.19 9251.71 3220.29 2749.22 2547.38 10746 2515.78 1721.79 14729.3 1631.91 1469.01 5095.82 1464.8 3904.06 1447.51 3217.32 1371.67 3075.84 1406.62 3991.06 1172.66 1926.16
threshold=12.990013700570621 9.1702107319460922 1.0000000180025095e-35 0.99998057679780061 1.0001011059636042 1.9999378119080078 1.0000000180025095e-35 0.99998057679780061 2.000094167317954 2.9879296396698867 6.9908362520919498 9987.5000000000018 1.0001011059636042 1.9999378119080078 9.4021899665596909 1.0000000180025095e-35 0.99998057679780061 18.250089986557651 9.9999413118525116 9.0001294900952491 3.0004494513839499 3.9986103450228687 8.9982488625754868 8.0000408452377592 7.9942892277552504 7.0004576834151537 6.999995693466583 6.0002884565291286 10.990042809116378 11.360231688722559
decision_type=2 2 2 2 2 2 2 2 2 2 2 2 2 2 2 2 2 2 2 2 2 2 2 2 2 2 2 2 2 2
left_child=1 10 11 -4 17 -6 14 -8 -7 -10 -1 -2 -9 -14 -3 -12 -17 -5 19 22 -11 -22 23 24 25 26 27 -13 -16 -30
right_child=2 6 3 4 5 8 7 12 9 20 15 18 13 -15 28 16 -18 -19 -20 -21 21 -23 -24 -25 -26 -27 -28 -29 29 -31
leaf_value=0.1148236826768885 0.020015615155422634 -0.16141655092083473 -0.14926908484217158 0.016822219708718254 -0.14926908484217158 0.019106141349134544 -0.14926908484217158 0.057592766683731811 -0.14922531179705958 0.02919122740015483 0.081690844162399495 -0.019593592476498063 -0.14926908484217158 0.051122391055699261 0.056218746341487859 -0.16154348885851291 0.084362956401392811 -0.021597345075766855 0.0014688400076567955 -0.18455179727879967 -0.16645650445911286 0.019345375794368014 0.062398338386694702 -0.19061057061061937 0.053709536213349451 -0.19101869876346514 0.054367265047646468 -0.1913435444118233 -0.051438254250071827 0.034637766242838174
leaf_weight=20726.556160762906 23628.319423481822 630.65233844518661 31391.787335723639 35178.139799192548 15571.069493234158 20345.682550221682 10249.734218806028 24928.577032983303 5718.506584495306 8160.4835169613361 31286.087500542402 35662.447165295482 3459.6971412301064 11813.728377699852 24906.005954712629 2938.6682967245579 14234.486053869128 16122.948139995337 22864.704978793859 2025.8238546848297 1640.9367424845695 3638.2065582722425 1924.6780864447355 1158.8882234245539 2280.5499989688396 1098.8576813042164 2307.046002343297 1406.345102250576 2803.3049297481775 35798.419785872102
leaf_count=88402 94639 2583 141965 141290 70418 81853 46353 101829 25869 32770 130268 143232 15646 48552 101637 12805 59724 64570 91723 8225 6980 14591 7729 4658 9158 4416 9264 5651 11293 144708
internal_value=0 0.0437993 -0.0348678 -0.0522307 -0.0235945 -0.0499946 0.0208345 -0.000133643 -0.0108639 -0.0426917 0.0818351 -0.00951684 0.0378893 0.00573023 0.0373281 0.0677255 0.0422835 0.00474769 -0.0193827 -0.0293433 0.0026379 -0.0384081 -0.0224839 -0.0262042 -0.0217479 -0.0259996 -0.0213944 -0.0261096 0.0393017 0.0283868
internal_weight=0 183776 232125 137768 106376 55074.9 114590 50451.7 39503.8 19158.1 69185.8 94357.7 40202 15273.4 64138.4 48459.2 17173.2 51301.1 70729.3 47864.6 13439.6 5279.14 45838.8 43914.1 42755.2 40474.7 39375.8 37068.8 63507.7 38601.7
internal_count=1722801 763800 959001 580306 438341 232481 472601 212380 162063 80210 291199 378695 166027 64198 260221 202797 72529 205860 284056 192333 54341 21571 184108 176379 171721 162563 158147 148883 257638 156001
shrinkage=0.1


Tree=5
num_leaves=31
num_cat=0
split_feature=4 4 4 2 2 2 2 2 2 2 2 4 4 2 2 2 2 2 2 1 1 1 1 1 1 1 1 1 1 1
split_gain=52695.4 14117.5 6117.01 4870.93 30789.5 4747.74 17709.6 4146.35 10645.8 3303.22 13871.5 2747.96 3958.32 2026.41 4906.22 1884.95 14662.9 1539.94 5441.04 1316.86 4772.98 1760.8 6090.4 1659.41 6476.87 1576.93 7128.05 1480.82 6742.72 1332.86
threshold=10.990042809116378 15.610047101228075 7.9002221924550691 1.0000000180025095e-35 0.99998057679780061 1.0000000180025095e-35 0.99998057679780061 1.0001011059636042 1.9999378119080078 1.0001011059636042 1.9999378119080078 10.989947028418111 10.910022532130208 2.000094167317954 2.9879296396698867 1.0000000180025095e-35 0.99998057679780061 2.000094167317954 2.9879296396698867 5.0001909294964548 5.9997458260615675 6.0002168274823466 6.9999119637699208 7.0000232207247164 7.9791993952800926 8.0004853010685704 8.9999931022678368 9.0001071044519509 9.9857926420898071 10.000016891673031
decision_type=2 2 2 2 2 2 2 2 2 2 2 2 2 2 2 2 2 2 2 2 2 2 2 2 2 2 2 2 2 2
left_child=2 3 -1 19 -5 -3 -7 -8 -9 -6 -11 12 15 -10 -15 -4 -17 -12 -19 -2 -21 -22 -23 -24 -25 -26 -27 -28 -29 -30
right_child=1 5 11 4 9 6 7 8 13 10 17 -13 -14 14 -16 16 -18 18 -20 20 21 22 23 24 25 26 27 28 29 -31
leaf_value=0.090279630550620882 0.053737116847461797 -0.021139138326616097 0.050999124328844181 -0.14243729692338711 0.031507376798674012 -0.14243729692338711 -0.0077699122557327929 -0.14243729692338711 0.0049546834208822246 -0.14243729692338711 0.047668323560556718 0.098120628695970519 -0.19463576740505747 -0.14244193360645285 -0.010100638778392851 -0.14208543653923492 0.05409692813973193 -0.14823796373307188 0.037520386838125475 -0.20369432940919438 0.071755484520105509 -0.20346999039238156 0.065022359080012887 -0.20335431780333957 0.061395288560437279 -0.20319039832453778 0.059832918566889187 -0.20304065536454199 0.05910160984575296 0.0085843339096191087
leaf_weight=39912.045822545886 8030.2820426672697 50811.565933585167 37899.684754192829 16222.631109207869 36527.127955079079 19905.285715609789 30465.715134903789 10550.765704959631 12828.753949284554 6467.7588938176632 12373.242412745953 7577.704846650362 745.84720267355442 4050.9734818339348 9080.533137857914 4753.1415798515081 19195.480659455061 2080.2259117811918 6516.1095779836178 1020.2667986005545 4938.8484442830086 1311.76087872684 5841.7080559432507 1400.2699262946844 6333.9399930983782 1542.845994412899 6432.4400724768639 1457.4538889676332 6067.2493490278721 37525.759841665626
leaf_count=174092 32358 204843 156711 77557 148020 95163 122029 50441 51384 30921 50526 31517 3249 19366 37059 22803 81189 9655 26423 4099 19905 5270 23545 5625 25524 6198 25919 5855 24444 151111
internal_value=0 -0.0218755 0.0590233 -0.00187443 -0.0193941 -0.0454204 -0.0596208 -0.035008 -0.0577362 0.0118121 -0.0144081 0.0412455 0.0343602 -0.023312 -0.050927 0.0371217 0.0151601 0.0250806 -0.00743125 0.0152782 0.0110975 0.0141056 0.00991316 0.0141159 0.00922151 0.0142361 0.00860291 0.01495 0.00854143 0.0156153
internal_weight=0 299784 110084 162090 80187.1 137694 86882 66976.7 36511 63964.5 27437.3 70171.9 62594.2 25960.3 13131.5 61848.3 23948.6 20969.6 8596.34 81902.8 73872.5 72852.3 67913.4 66601.7 60760 59359.7 53025.7 51482.9 45050.5 43593
internal_count=1722801 1253240 469561 672955 343102 580285 375442 280279 158250 265545 117525 295469 263952 107809 56425 260703 103992 86604 36078 329853 297495 293396 273491 268221 244676 239051 213527 207329 181410 175555
shrinkage=0.1


Tree=6
num_leaves=31
num_cat=0
split_feature=4 4 2 2 2 2 2 2 2 2 0 2 2 4 0 4 2 2 2 2 4 4 4 4 4 4 2 2 4 3
split_gain=43991.7 11559 7399.88 29987.8 5587.24 16562 2941.76 24197.5 2567.06 7064.78 2153.73 2095.96 9525.88 1796.33 1461.24 1224.08 1193.22 3321.2 1099.55 4353.51 1065.02 1998.46 1794.45 2067.54 1112 2648.83 1010.92 8278.92 914.951 885.24
threshold=12.990013700570621 8.3902975980743282 1.0000000180025095e-35 0.99998057679780061 1.0001011059636042 1.9999378119080078 1.0000000180025095e-35 0.99998057679780061 2.000094167317954 2.9879296396698867 9987.5000000000018 1.0001011059636042 1.9999378119080078 6.9908362520919498 9512.5000000000018 18.250089986557651 3.0004494513839499 3.9986103450228687 2.000094167317954 2.9879296396698867 8.8998863277013545 8.670100859508354 9.1702107319460922 9.4021899665596909 12.989617717811671 12.790050941439317 1.0000000180025095e-35 0.99998057679780061 17.570016180946961 9.9999413118525116
decision_type=2 2 2 2 2 2 2 2 2 2 2 2 2 2 2 2 2 2 2 2 2 2 2 2 2 2 2 2 2 2
left_child=1 13 10 -4 14 -6 20 -8 -7 -10 29 -9 -13 -1 -5 -12 -11 -18 -14 -20 21 -3 -22 -24 25 -25 -15 -28 -16 -2
right_child=2 6 3 4 5 8 7 11 9 16 15 12 18 26 28 -17 17 -19 19 -21 22 -23 23 24 -26 -27 27 -29 -30 -31
leaf_value=0.10070619603460794 0.0076612845354185723 0.01253719863686579 -0.13680339859934473 0.030603172962851755 -0.13680339859934473 0.015191401435182854 -0.13682073079871049 0.051976024696037793 -0.13671914048068148 0.025757756545639405 -0.0083142330141045724 -0.14069557901940408 0.068296403546106707 0.075038377470862061 0.0065133707840625459 -0.037228633633465229 -0.15704300567148341 0.016990183968562656 -0.17352640388438204 0.059653315908932358 0.084552602814935124 -0.22978105565612778 -0.14821888242458012 0.033107817048845078 0.092777894356157548 -0.095372318906930986 -0.16102834109479647 0.075481865084946004 -0.025334527791761992 0.054105977060828661
leaf_weight=19527.615461856127 18294.919528111815 1704.7923625707626 27917.433950155973 14300.238937571645 13847.707983672619 20269.449609398842 10068.095356404781 27467.025452703238 5081.7055770605803 8136.0877598971128 49698.740321874619 3454.4671768248081 8224.1165195703506 21230.35348854959 21177.857780531049 20756.2230617553 1570.9347598552704 3631.3042207807302 1032.9657926410437 3560.5454666018486 6851.5690815448761 425.24516031146049 639.47406207025051 58224.167836904526 2918.7133058160543 1650.1330235004425 1761.2372342646122 9270.0796523094177 15713.879016548395 5290.5833733826876
leaf_count=88402 73408 7156 141965 57525 70418 81853 51203 114425 25869 32770 199967 16964 34415 92567 85323 84089 6980 14591 4531 14766 28760 1785 2583 239177 11845 6616 7955 40650 63012 21231
internal_value=0 0.0369863 -0.0295008 -0.044805 -0.0200448 -0.0429543 0.0206636 0.0029532 -0.00936393 -0.0363847 -0.0080765 0.0351271 0.00668634 0.0767679 0.00346672 -0.0168325 0.00184128 -0.0355631 0.0464071 0.00721703 0.0338233 -0.0358397 0.0359346 0.0306831 0.0325051 0.0295669 0.0622784 0.0377211 -0.00705211 0.0180795
internal_weight=0 178011 225687 131647 103729 52537.2 126221 53807.2 38689.5 18420 94040.5 43739.1 16272.1 51789.3 51192 70455 13338.3 5202.24 12817.6 4593.51 72414.1 2130.04 70284.1 63432.5 62793 59874.3 32261.7 11031.3 36891.7 23585.5
internal_count=1722801 763800 959001 580306 438341 232481 534226 236304 162063 80210 378695 185101 70676 229574 205860 284056 54341 21571 53712 19297 297922 8941 288981 260221 257638 245793 141172 48605 148335 94639
shrinkage=0.1


Tree=7
num_leaves=31
num_cat=0
split_feature=4 4 4 2 2 2 2 2 2 2 2 4 4 2 2 2 2 2 2 1 1 1 1 1 1 1 1 1 1 1
split_gain=36879.9 8501.8 6041.95 3186.48 11980.9 3183.29 22891.4 2687.69 7167.39 2154.22 10786.5 1484.13 1472.54 1411.35 13359 1194.72 3337.34 1071.63 5014.34 1023.45 3648.24 1450.14 4676.18 1448.23 5017.21 1284.63 5523.99 1245.62 5271.25 1157.44
threshold=11.530002364834226 16.290024024533736 8.2400273388077974 1.0000000180025095e-35 0.99998057679780061 1.0000000180025095e-35 0.99998057679780061 1.0001011059636042 1.9999378119080078 1.0001011059636042 1.9999378119080078 8.3898906274312441 6.4912214949125611 1.0000000180025095e-35 0.99998057679780061 2.000094167317954 2.9879296396698867 1.0001011059636042 1.9999378119080078 5.0001909294964548 5.9997458260615675 6.0002168274823466 6.9999119637699208 7.0000232207247164 7.9791993952800926 8.0004853010685704 8.9999931022678368 9.0001071044519509 9.9857926420898071 10.000016891673031
decision_type=2 2 2 2 2 2 2 2 2 2 2 2 2 2 2 2 2 2 2 2 2 2 2 2 2 2 2 2 2 2
left_child=2 5 12 -3 -5 19 -7 -6 -9 -8 -11 -4 -1 -13 -15 -10 -17 -16 -19 -2 -21 -22 -23 -24 -25 -26 -27 -28 -29 -30
right_child=1 3 11 4 7 6 9 8 15 10 -12 13 -14 14 17 16 -18 18 -20 20 21 22 23 24 25 26 27 28 29 -31
leaf_value=0.10291598981737118 0.043754682997532955 -0.019878861954178338 -0.093640324353794185 -0.13209778401659206 -0.0095902837121617773 -0.13209762980310988 0.022336790894845467 -0.13209778401659206 -0.00072948346203448159 -0.13206673020139439 0.018749121425197128 0.040141248023735428 0.062525391006567607 -0.13212369662973986 0.057701318957362441 -0.13210385223675977 -0.012455746159551681 -0.13845049519263669 0.051683252877916357 -0.1849402120887618 0.0620182096911066 -0.18466733888026465 0.057276870697851735 -0.18456143583422438 0.051941546497908268 -0.18445110320860869 0.051043090614162227 -0.18425876900972751 0.051026893331904834 0.0023538224791382857
leaf_weight=12188.489062830806 7537.7780977040529 43281.037449806929 995.95821371674538 15516.35324960947 26375.200803920627 14743.20260772109 35975.370515733957 8369.2362721860409 11270.473660886288 6103.8689734637737 21259.219185113907 46776.402211219072 34790.789752244949 5283.2894120514393 16525.3551312536 3262.7352744340897 8165.6870608925819 1723.8163869976997 7100.1911122947931 997.1126404851675 4590.6351820975542 1289.5123793631792 5388.3803143501282 1390.810572206974 5878.326675504446 1531.7670479565859 6008.9158760607243 1460.9314233660698 5660.9559748917818 35671.152354285121
leaf_count=57564 30482 175324 4415 84354 105767 80151 146092 45499 45147 33200 89778 195379 157438 28728 70894 17736 33630 8693 30387 4036 18600 5221 21818 5631 23789 6203 24311 5917 22898 143719
internal_value=0 -0.0209177 0.0446458 -0.0413754 -0.0541276 -0.0056238 -0.0198701 -0.0330666 -0.0529967 0.00625288 -0.0148933 0.0276537 0.0730045 0.0292143 0.0125286 -0.0238316 -0.0466145 0.0426769 0.0145396 0.00874684 0.00497002 0.00771952 0.00384175 0.00770078 0.00306325 0.0077055 0.0025393 0.00840845 0.00242178 0.00902022
internal_weight=0 271729 125384 116241 72959.7 155488 78081.7 57443.3 31068.1 63338.5 27363.1 78405 46979.3 77409.1 30632.7 22698.9 11428.4 25349.4 8824.01 77406.3 69868.5 68871.4 64280.8 62991.2 57602.9 56212 50333.7 48802 42793 41332.1
internal_count=1722801 1169303 553498 507457 332133 661846 349221 247779 142012 269070 122978 338496 215002 334081 138702 96513 51366 109974 39080 312625 282143 278107 259507 254286 232468 226837 203048 196845 172534 166617
shrinkage=0.1


Tree=8
num_leaves=31
num_cat=0
split_feature=4 4 4 2 2 2 2 2 2 2 2 4 4 4 2 2 2 2 4 2 2 3 3 3 3 3 3 3 3 3
split_gain=30871.6 8255.73 3952.56 3083.6 22773.6 2793.96 11024 2310.81 6551.97 1998.39 10354.5 1817.84 3460.14 1809.05 1249.43 12184.5 1176.65 4520.28 1152.96 1131.79 5421.63 1070.49 5759.15 1301.3 6306.09 1742.91 6945.25 1410.38 5389.27 1533.04
threshold=10.990042809116378 16.290024024533736 7.2601982127886133 1.0000000180025095e-35 0.99998057679780061 1.0000000180025095e-35 0.99998057679780061 1.0001011059636042 1.9999378119080078 1.0001011059636042 1.9999378119080078 10.989947028418111 10.490178817563924 10.910022532130208 1.0000000180025095e-35 0.99998057679780061 2.000094167317954 2.9879296396698867 11.101458539048318 1.0001011059636042 1.9999378119080078 1.0000000180025095e-35 0.98277227409373225 1.0001313959644516 1.9914816444224515 2.000075587337458 2.9909130349242594 3.0004024780421115 3.9998625034769115 4.0000711912822959
decision_type=2 2 2 2 2 2 2 2 2 2 2 2 2 2 2 2 2 2 2 2 2 2 2 2 2 2 2 2 2 2
left_child=2 3 -1 18 -5 -3 -7 -8 -9 -6 -11 12 14 -14 -4 -16 -12 -18 -2 -17 -21 -20 -23 -24 -25 -26 -27 -28 -29 -30
right_child=1 5 11 4 9 6 7 8 -10 10 16 -13 13 -15 15 19 17 -19 21 20 -22 22 23 24 25 26 27 28 29 -31
leaf_value=0.083795093100465609 -0.12744511342374079 -0.017925143816198707 0.049754963093346448 -0.1281256196242288 0.021733532172158395 -0.12812584989609688 -0.0086343577724506768 -0.12812584989609688 -0.021728670363305211 -0.12808028025445548 0.03674165036119284 0.08409010353959423 -0.015262891129032284 -0.18374394761025725 -0.13714151718822273 0.06952271028720669 -0.13621384291026012 0.028590833445861375 0.051783552279675064 -0.1700768867380279 0.062849844405747243 -0.19913682592974807 0.062199377789273237 -0.19895482528259431 0.061364063324467505 -0.19846056899975756 0.059754468449504265 -0.19845746902851069 0.071196825393937679 0.0076625869810270216
leaf_weight=22344.226317197084 608.71475799381733 43202.798012271523 41668.223532542586 15139.633186161518 40128.61609005928 14452.329755812883 26366.210009947419 7795.3215207308531 22474.020233884454 6138.7685540169477 13692.786733299494 7250.8668334782124 7529.4301293343306 696.23846825957298 4046.734525769949 13560.874792397022 2158.9982357472181 7263.0893594920635 5903.5925220102072 1232.219502016902 5286.3194716870785 1324.5007226020098 4692.0619540512562 1445.245976164937 6513.204207867384 1603.1222326606512 5696.747201949358 1241.9141645878553 4077.6790916472673 55343.986940607429
leaf_count=107758 2442 175324 181786 88366 164282 84354 105767 45499 96513 35863 56763 31517 33302 3249 22078 60480 11285 29852 23990 6001 23390 5369 19072 5857 26467 6499 23158 5034 16574 224910
internal_value=0 -0.0171257 0.0465463 -0.00334557 -0.0170042 -0.0379812 -0.0501701 -0.0302772 -0.0491293 0.0072432 -0.0126339 0.0363053 0.0316244 -0.0295235 0.0392691 0.021159 0.018026 -0.00917288 0.00970635 0.0530624 0.018819 0.0106568 0.00769361 0.0110919 0.00793337 0.0119481 0.00721238 0.012181 0.0077135 0.0120225
internal_weight=0 287263 103615 172973 84521.9 114291 71087.9 56635.6 30269.3 69382.3 29253.6 81270.9 74020 8225.67 65794.4 24126.1 23114.9 9422.09 88450.8 20079.4 6518.54 87842.1 81938.5 80614 75921.9 74476.7 67963.4 66360.3 60663.6 59421.7
internal_count=1722801 1253240 469561 745783 386411 507457 332133 247779 142012 298045 133763 361803 330286 36551 293735 111949 97900 41137 359372 89871 29391 356930 332940 327571 308499 302642 276175 269676 246518 241484
shrinkage=0.1


Tree=9
num_leaves=31
num_cat=0
split_feature=4 4 2 2 2 2 4 4 4 4 2 2 0 2 2 4 3 3 0 3 3 3 3 3 3 4 4 4 4 4
split_gain=25836.1 7373.55 4492.42 21372 3240.01 11628.3 2659.03 1901.71 1874.7 1782.76 1713.53 5457.78 1674.69 1446.34 14247.4 1218.68 1194.03 4308.53 1147.6 1124 2684.45 1086.05 2581.23 1170.31 3427.83 1081.66 1177.92 1693.74 1931.67 1807.16
threshold=13.110011572609855 9.1702107319460922 1.0000000180025095e-35 0.99998057679780061 1.0001011059636042 1.9999378119080078 9.4021899665596909 13.32986491035639 13.35007055932808 6.9908362520919498 2.000094167317954 2.9879296396698867 7512.5000000000009 1.0000000180025095e-35 0.99998057679780061 13.430107377427207 9.9999413118525116 9.0001294900952491 9512.5000000000018 8.9982488625754868 8.0000408452377592 7.9942892277552504 7.0004576834151537 6.999995693466583 6.0002884565291286 9.1600366490040503 8.3902975980743282 8.8998863277013545 8.670100859508354 8.9002422025577843
decision_type=2 2 2 2 2 2 2 2 2 2 2 2 2 2 2 2 2 2 2 2 2 2 2 2 2 2 2 2 2 2
left_child=1 9 7 -4 18 -6 -3 -2 -9 -1 -7 -12 -10 -8 -15 -14 17 19 -5 20 21 22 23 24 -17 26 -11 28 -28 -29
right_child=2 6 3 4 5 10 13 8 12 25 11 -13 15 14 -16 16 -18 -19 -20 -21 -22 -23 -24 -25 -26 -27 27 29 -30 -31
leaf_value=0.08328023310922833 -0.11676870473483675 -0.13846329634368512 -0.12474351383326863 0.025861019426698991 -0.12474416739957284 0.011996893166177212 0.024496076037928746 0.078261532796090022 0.022398372800092669 0.049269280667505855 -0.1277769079567429 0.001411500567779888 -0.19549202294907916 -0.12508466485142597 0.025688247691410933 -0.013000924402707163 0.0060135075752406194 -0.16735797977263075 -0.0078662557995367085 0.058396057338050034 -0.17092098884199439 0.05178652343666737 -0.17132871011430748 0.054211965683550134 -0.17217488108874524 0.089591950029225875 -0.005242901158364832 0.11620003875425299 -0.18112281024245602 -0.0042230657391326108
leaf_weight=17528.322475805879 1548.5645359456539 1145.3333201706409 22263.360967874527 13974.289722710848 11070.796888306737 19908.186490103602 63433.17947024107 2625.2266512066126 15429.088733658195 30264.88185352087 4363.1600422412157 13054.179615259171 367.69523754715919 7481.5232362002134 38621.409229069948 36881.970840275288 22658.714714467525 1951.1287465840578 36281.514453113079 1961.480927452445 1132.8763918280602 2306.0531668663025 1079.5188310146332 2326.2365540862083 1404.4490274488926 4948.5535563677549 2650.7419448047876 2064.9985437840223 816.89333179593086 3142.6984518617392
leaf_count=88402 6268 5366 140012 56483 69622 80754 264910 10589 62203 141172 25649 53700 1489 46773 170538 149549 91435 8267 146372 7907 4713 9301 4489 9380 5833 22030 12115 9151 3901 14428
internal_value=0 0.0285339 -0.0235866 -0.0362442 -0.0162721 -0.0347395 0.0131148 -0.00689149 -0.00500352 0.0563209 -0.00804406 -0.0309511 -0.00750171 0.0146998 0.00122102 -0.0139029 -0.0129717 -0.021743 0.00151206 -0.0157099 -0.0189307 -0.0150172 -0.0187122 -0.0146555 -0.0188399 0.0455539 0.0399575 0.00747239 -0.0466761 0.0435281
internal_weight=0 172099 212588 120915 98652.1 48396.3 110681 91673 90124.4 61417.1 37325.5 17417.3 87499.2 109536 46102.9 72070.1 71702.4 49043.7 50255.8 47092.6 45131.1 43998.2 41692.2 40612.7 38286.4 43888.8 38940.2 8675.33 3467.64 5207.7
internal_count=1722801 778786 944015 572592 432580 229725 487587 371423 365155 291199 160103 79349 354566 482221 217311 292363 290874 199439 202855 191172 183265 178552 169251 164762 155382 202797 180767 39595 16016 23579
shrinkage=0.1


Tree=10
num_leaves=31
num_cat=0
split_feature=4 4 4 2 2 2 2 4 4 4 0 1 1 1 1 1 1 1 1 1 1 1 1 1 1 1 1 2 2 1
split_gain=21642.6 6097.39 2982.15 2952.4 22371.4 1994.6 10969.8 1485.97 2834.53 1511.27 1449.99 1319.28 4277.55 1827.75 5583.12 1636.09 6030.47 1606.03 6710.36 1528.88 6399.34 1291.52 7548.15 1523.2 7051.56 1410.18 6071.38 1182.42 3933.87 1172.89
threshold=10.990042809116378 18.250089986557651 6.9908362520919498 1.0000000180025095e-35 0.99998057679780061 1.0001011059636042 1.9999378119080078 10.989947028418111 10.490178817563924 10.910022532130208 6037.5000000000009 5.0001909294964548 5.9997458260615675 6.0002168274823466 6.9999119637699208 7.0000232207247164 7.9791993952800926 8.0004853010685704 8.9999931022678368 9.0001071044519509 9.9857926420898071 10.000016891673031 10.969457995161383 11.000035595641149 11.999962074327003 12.000287474175687 12.99973531389041 1.0000000180025095e-35 0.99998057679780061 13.000108525553943
decision_type=2 2 2 2 2 2 2 2 2 2 2 2 2 2 2 2 2 2 2 2 2 2 2 2 2 2 2 2 2 2
left_child=2 3 -1 11 -5 -6 -7 8 -4 -10 -3 -2 -13 -14 -15 -16 -17 -18 -19 -20 -21 -22 -23 -24 -25 -26 -27 -12 -29 -28
right_child=1 10 7 4 5 6 -8 -9 9 -11 27 12 13 14 15 16 17 18 19 20 21 22 23 24 25 26 29 28 -30 -31
leaf_value=0.078085999673179918 0.039640533950766936 0.0010393888028856408 0.034572048325864413 -0.12183947372652226 0.015505875725582123 -0.12269785739263504 0.011995393560052794 0.075953987333717221 -0.015040772930482036 -0.17213410858928069 -0.027327814209017972 -0.17391738525216882 0.056956463021846648 -0.17391460129633457 0.049502087987618439 -0.17333155589338223 0.047065036559536949 -0.17358999759401172 0.045972280291792705 -0.17328768376391387 0.044190317026405496 -0.19554531621354232 0.051481064339346863 -0.19500172139416294 0.054475063363058622 -0.19534360653913199 0.055492834610188772 -0.12184166858424433 -0.040675798562607252 0.0023560650963677793
leaf_weight=16860.310492679477 10290.935387715697 7465.5693073868752 67509.464873477817 17338.753031715751 50184.912405028939 7555.2726987600327 30278.920927777886 7018.9726980775595 7461.3498551100492 667.14239643514156 22272.506044641137 1363.1483815312386 6205.8907384872437 1791.657630994916 7367.9294908493757 1952.4164609462023 7993.1643639802933 2164.1468221843243 8128.6016423106194 2063.3758777529001 7657.4770595431328 1897.0390768200159 6853.8702593445778 1764.4166077077389 5889.4577171653509 1497.9027701616287 4934.333039984107 7393.0161957740784 31052.87776646018 26267.198480844498
leaf_count=88402 42024 33588 313091 117856 205479 50244 130449 31517 33302 3249 91326 5673 25460 7453 30188 8132 32707 9010 33243 8595 31317 7701 27819 7161 23900 6080 20026 50249 140937 106623
internal_value=0 -0.0145449 0.0397574 -0.0061594 -0.0180166 0.0024353 -0.0149021 0.0319392 0.0278548 -0.0279341 -0.0405488 0.00561676 0.00196159 0.00450052 0.000810603 0.00443253 0.000232489 0.00462705 -0.000280706 0.00532118 -0.000296097 0.00599242 3.5707e-05 0.00789521 0.0004923 0.00943096 0.00131812 -0.0456622 -0.0562837 0.0107593
internal_weight=0 279625 99517.2 211441 105358 88019.1 37834.2 82656.9 75638 8128.49 68184 106083 95792 94428.9 88223 86431.3 79063.4 77111 69117.8 66953.7 58825.1 56761.7 49104.2 47207.2 40353.3 38588.9 32699.4 60718.4 38445.9 31201.5
internal_count=1722801 1253240 469561 937140 504028 386172 180693 381159 349642 36551 316100 433112 391088 385415 359955 352502 322314 314182 281475 272465 239222 230627 199310 191609 163790 156629 132729 282512 191186 126649
shrinkage=0.1


Tree=11
num_leaves=31
num_cat=0
split_feature=4 4 4 4 4 3 3 3 3 3 3 3 3 3 3 3 3 3 3 3 3 3 3 3 3 4 4 4 4 4
split_gain=18090.9 4002.94 3881.1 3103.43 2663.58 2194.61 9622.98 2430.06 5352.72 2294.24 5269.92 2852.92 7465.45 1991.67 7444.68 2528.82 8425.06 3093.08 9446.98 2937.43 7573.81 2966.53 7680.63 3173.06 10751.8 1618.22 2614.1 1832.44 5233.68 1302.44
threshold=12.120280926816868 7.9002221924550691 18.250089986557651 12.289982797294332 12.290045684249407 9.9999413118525116 9.0001294900952491 8.9982488625754868 8.0000408452377592 7.9942892277552504 7.0004576834151537 6.999995693466583 6.0002884565291286 1.0000000180025095e-35 0.98277227409373225 1.0001313959644516 1.9914816444224515 2.000075587337458 2.9909130349242594 3.0004024780421115 3.9998625034769115 4.0000711912822959 4.9998503404882957 5.000077101108193 5.999985419778926 12.119964748531865 11.990067561836968 11.989992139308988 11.670248210900272 18.450072997772299
decision_type=2 2 2 2 2 2 2 2 2 2 2 2 2 2 2 2 2 2 2 2 2 2 2 2 2 2 2 2 2 2
left_child=1 -1 3 -2 -5 6 7 8 9 10 11 12 13 -6 -15 -16 -17 -18 -19 -20 -21 -22 -23 -24 -25 26 27 28 -3 -4
right_child=2 25 29 4 5 -7 -8 -9 -10 -11 -12 -13 -14 14 15 16 17 18 19 20 21 22 23 24 -26 -27 -28 -29 -30 -31
leaf_value=0.059104083296040326 -0.14301377988962424 0.02047700541904883 -0.12163555789493835 0.082291951808658628 0.031307950544772277 0.0085018486525134107 -0.16497006148981036 0.062202790003651622 -0.1608080172203139 0.052701434902128447 -0.16043387543089158 0.059812101440993505 -0.16312649117489927 -0.1648350293591839 0.043542569908012689 -0.16465373145976242 0.039932754397205512 -0.16595798980411819 0.04316160732471383 -0.16445411530340215 0.052551728266677138 -0.168623746947341 0.0531498103429765 -0.17018761770686586 0.015779512501006451 0.1126680805734217 -0.10859515206681725 0.071192902084310949 -0.11155469900767256 -0.034731812148955758
leaf_weight=33675.584401905537 1704.364896684885 86309.217057265341 1771.1629107445478 3247.9619038701057 10696.952506422997 49766.281153842807 4211.3143958300352 4355.6560764014721 2427.2992311865091 5429.2820927798748 2400.2138661593199 5457.3680272698402 3265.0447584688663 3169.4200026392937 8341.2801044285297 3556.305200368166 11723.268235132098 3933.475475281477 10103.482881709933 3211.7307645529509 7339.8637918829918 3054.6580944061279 7648.4494106173515 3935.6169284880161 14800.117286279798 1818.5812622159719 1617.7824227660894 6420.3488958030939 3110.4729690253735 65555.833075761795
leaf_count=174092 8392 393784 9172 13639 46008 217350 22245 18041 13083 22783 12973 22817 17462 16760 35381 18860 49975 20677 42877 17047 30939 16178 32197 20673 63859 7648 7787 27841 15333 306928
internal_value=0 0.0293115 -0.0166345 -0.00873743 -0.00740746 -0.00913313 -0.0165044 -0.0110604 -0.0139485 -0.0106498 -0.014001 -0.0104946 -0.0145428 -0.00924164 -0.0146087 -0.00847686 -0.0147375 -0.00662891 -0.0167322 -0.0050147 -0.0171863 -0.00432605 -0.0185071 -0.00112723 -0.0232846 0.0192056 0.0174616 0.0195894 0.0158843 -0.037018
internal_weight=0 132952 241106 173779 172075 168827 119061 114849 110494 108067 102637 100237 94779.7 91514.6 80817.7 77648.2 69307 65750.7 54027.4 50093.9 39990.4 36778.7 29438.8 26384.2 18735.7 99276.4 97457.8 95840 89419.7 67327
internal_count=1722801 626485 1096316 780216 771824 758185 540835 518590 500549 487466 464683 451710 428893 411431 365423 348663 313282 294422 244447 223770 180893 163846 132907 116729 84532 452393 444745 436958 409117 316100
shrinkage=0.1


Tree=12
num_leaves=31
num_cat=0
split_feature=4 4 2 2 4 2 2 4 4 2 2 0 2 2 5 3 3 3 3 3 3 3 3 3 3 3 3 3 3 3
split_gain=14960.7 4609.38 3090.07 17172.3 2283.09 2243.52 9563.01 1521.45 1416.19 1343.47 12160.7 1278.82 1271.79 4735.24 1170.59 1148.15 8094.52 1499.34 4069.61 1385.51 3732.29 1619.66 5799.26 1079.61 5986.87 1400.37 6475.28 1944.51 7127.42 1638.44
threshold=13.110011572609855 9.1702107319460922 1.0000000180025095e-35 0.99998057679780061 9.4021899665596909 1.0001011059636042 1.9999378119080078 5.321636305970828 13.32986491035639 1.0000000180025095e-35 0.99998057679780061 9987.5000000000018 2.000094167317954 2.9879296396698867 699.99652420982807 9.9999413118525116 9.0001294900952491 8.9982488625754868 8.0000408452377592 7.9942892277552504 7.0004576834151537 6.999995693466583 6.0002884565291286 1.0000000180025095e-35 0.98277227409373225 1.0001313959644516 1.9914816444224515 2.000075587337458 2.9909130349242594 3.0004024780421115
decision_type=2 2 2 2 2 2 2 2 2 2 2 2 2 2 2 2 2 2 2 2 2 2 2 2 2 2 2 2 2 2
left_child=1 7 8 -4 -3 -5 -7 -1 -2 -9 -11 -10 -8 -14 -13 16 17 18 19 20 21 22 23 -6 -25 -26 -27 -28 -29 -30
right_child=2 4 3 5 15 6 12 9 11 10 -12 14 13 -15 -16 -17 -18 -19 -20 -21 -22 -23 -24 24 25 26 27 28 29 -31
leaf_value=0.10282493590006486 -0.10061033725723748 -0.13117647938958663 -0.11830543190031094 0.0022307396898812834 0.046318458528522524 -0.11901627296756351 0.011742022338966708 0.051614383717939374 0.017852001436861369 -0.16800844804268478 0.054112754122312617 -0.017613332356876593 -0.12279472545338091 0.0032946496045723988 0.012803162498874572 0.026990170772266675 -0.19461275314257059 0.078459042817026967 -0.18978839953084373 0.069647027196065345 -0.1861161392834263 0.074241610188179055 -0.19143980679203795 -0.18617918578397363 0.057907323227180486 -0.18545319553303713 0.057405115847711276 -0.18771951267839046 0.056610191423343496 0.0017206658984384616
leaf_weight=4194.2764927297831 1509.673938035965 1136.3956300020218 18225.827836856246 50024.937194436789 7344.4698825180531 9287.4893820881844 19831.117480680346 35473.30910140276 22197.175963491201 2940.4643784761429 15236.417281508446 49648.486012369394 3864.681778177619 12987.774094611406 16980.158798530698 32482.073629587889 1988.1185948103666 3057.4138275831938 1036.1941933333874 3670.9639681428671 990.66331480443478 3641.3713090717793 1458.0196308717132 1582.0195498839021 5733.9403039216995 1709.0490634143353 8017.5205647051334 1858.95635420084 6960.7329005897045 24861.663610607386
leaf_count=24096 6268 5366 140012 202855 32639 69622 80754 176016 90491 14883 76204 204634 25649 53700 70030 144982 10065 13313 5328 16058 5158 15902 7484 8169 25309 8844 35448 9535 30721 113266
internal_value=0 0.0220589 -0.018389 -0.0293193 0.00981401 -0.0124243 -0.0283717 0.0448214 -0.00456853 0.0402868 0.0181803 -0.00293621 -0.00542245 -0.0256207 -0.00986176 0.0113199 0.00443327 0.00993536 0.00689313 0.00989773 0.00647904 0.00949953 0.0055391 0.010485 0.00529653 0.0114607 0.00532536 0.0131445 0.0026087 0.013727
internal_weight=0 165374 204557 114222 107530 95996 45971.1 57844.5 90335.5 53650.2 18176.9 88825.8 36683.6 16852.5 66628.6 106393 73911.1 71923 68865.6 67829.4 64158.4 63167.7 59526.4 58068.4 50723.9 49141.9 43407.9 41698.9 33681.4 31822.4
internal_count=1722801 778786 944015 572592 487587 432580 229725 291199 371423 267103 91087 365155 160103 79349 274664 482221 337239 327174 313861 308533 292475 287317 271415 263931 231292 223123 197814 188970 153522 143987
shrinkage=0.1


Tree=13
num_leaves=31
num_cat=0
split_feature=4 4 4 3 3 4 3 3 3 3 3 3 3 3 3 3 3 3 4 3 3 3 3 3 3 4 4 0 4 4
split_gain=12570.6 3720.05 3832.65 2243.89 6576.34 2214.41 2099.67 4864.3 2390.59 5752.61 3098.26 6356.24 2889.38 5414.33 2826.14 5304.58 3154.66 6551.74 1872.04 1688.42 4974.26 2400.65 4101.64 1524.49 5730.56 1460.58 2079.96 1357.59 1289.27 2084.86
threshold=10.990042809116378 14.650044979623749 14.954543577429879 9.9999413118525116 9.0001294900952491 6.9908362520919498 1.0000000180025095e-35 0.98277227409373225 1.0001313959644516 1.9914816444224515 2.000075587337458 2.9909130349242594 3.0004024780421115 3.9998625034769115 4.0000711912822959 4.9998503404882957 5.000077101108193 5.999985419778926 11.360231688722559 6.0002884565291286 6.999995693466583 7.0004576834151537 7.9942892277552504 8.9982488625754868 8.0000408452377592 11.140109003240847 11.101458539048318 9987.5000000000018 10.989947028418111 10.910022532130208
decision_type=2 2 2 2 2 2 2 2 2 2 2 2 2 2 2 2 2 2 2 2 2 2 2 2 2 2 2 2 2 2
left_child=5 18 -3 4 6 -1 -4 -8 -9 -10 -11 -12 -13 -14 -15 -16 -17 -18 25 -19 -21 -22 -23 24 -24 26 -2 -5 29 -7
right_child=1 2 3 27 -6 28 7 8 9 10 11 12 13 14 15 16 17 19 -20 20 21 22 23 -25 -26 -27 -28 -29 -30 -31
leaf_value=0.065972415037013732 -0.11806793987016476 -0.13377064975614741 0.025684117695584575 0.037726646042662404 -0.14658239576173701 0.022049355053855236 -0.15323299954284433 0.035350363337253915 -0.15260729788957181 0.032619192379805872 -0.15257819890105628 0.034856877271167951 -0.15231375859320059 0.043949950762267972 -0.15289886230172442 0.045444555991902925 -0.15371616009218647 0.013327211710646353 0.0040776824460786619 -0.14734383543822835 0.051108217901080166 -0.14642283257898669 0.038891135777088165 0.046979766895289127 -0.1460194736001233 -0.12074013430696073 0.060481780016827219 -0.0087587788687568998 0.066272720622487999 -0.15933197630303286
leaf_weight=15194.468012645841 1083.0972963571548 3006.8758832067251 8343.2616198286414 7683.3492796719074 4450.9433847144246 72351.427887901664 2941.4734483882785 6604.9113323166966 3500.2642307803035 9290.2710995972157 3918.9330755919218 7993.6543611288071 3368.9417093843222 5854.7301679328084 3253.8559303209186 6210.2557531818748 3924.6088144630194 11766.935193032026 117500.04505753517 3267.9815150871873 4385.3426445946097 2615.5884033367038 4281.60592892766 3538.1990758180618 2754.0408531948924 2151.7388324141502 1640.83740580827 34458.657668046653 6707.5761475265026 639.31245794892311
leaf_count=88402 5285 16012 36134 33806 26453 346393 16930 28184 20302 39952 22668 34182 19610 24787 18942 26258 22695 51215 533683 19431 18317 15686 17987 14644 16495 10481 7303 155798 31517 3249
internal_value=0 -0.0113297 -0.0220286 -0.0197019 -0.0277039 0.0309864 -0.0222945 -0.0267685 -0.0224695 -0.0272477 -0.0215062 -0.0289962 -0.021335 -0.029469 -0.0214877 -0.0298167 -0.0204472 -0.0316478 0.00155822 -0.0169568 -0.0340538 -0.0129878 -0.0342991 -0.00656368 -0.0334905 -0.0591589 -0.0105136 -0.000283536 0.0243163 0.0204607
internal_weight=0 269790 147415 144408 102266 94892.8 97814.9 89471.6 86530.1 79925.2 76424.9 67134.7 63215.7 55222.1 51853.1 45998.4 42744.6 36534.3 122376 32609.7 20842.8 17574.8 13189.4 10573.8 7035.65 4875.67 2723.93 42142 79698.3 72990.7
internal_count=1722801 1253240 696488 680476 490872 469561 464419 428285 411355 383171 362869 322917 300249 266067 246457 221670 202728 176470 556752 153775 102560 83129 64812 49126 34482 23069 12588 189604 381159 349642
shrinkage=0.1


Tree=14
num_leaves=31
num_cat=0
split_feature=4 2 2 2 2 5 2 2 4 5 5 2 2 2 2 2 2 0 4 0 3 3 3 3 3 3 3 3 3 3
split_gain=10709.3 3823.36 23291.9 2676.08 11874 1757.58 1532.83 5983.5 1501.21 1295.87 1181.97 1117.9 3460.28 1036.28 10057.8 1049.68 5379.48 981.116 919.83 888.054 837.468 4405.12 861.912 2598.95 739.339 3335.09 1029.34 3726.7 1232.89 4062.46
threshold=9.9900661241096476 1.0000000180025095e-35 0.99998057679780061 1.0001011059636042 1.9999378119080078 684.95140927086175 2.000094167317954 2.9879296396698867 6.4912214949125611 684.95140927086175 680.00127730973065 3.0004494513839499 3.9986103450228687 1.0000000180025095e-35 0.99998057679780061 1.0001011059636042 1.9999378119080078 9987.5000000000018 7.9002221924550691 9601.2268457127539 9.9999413118525116 9.0001294900952491 8.9982488625754868 8.0000408452377592 1.0000000180025095e-35 0.98277227409373225 1.0001313959644516 1.9914816444224515 2.000075587337458 2.9909130349242594
decision_type=2 2 2 2 2 2 2 2 2 2 2 2 2 2 2 2 2 2 2 2 2 2 2 2 2 2 2 2 2 2
left_child=8 5 -3 9 -5 10 -6 -8 -1 19 17 -9 -13 -10 -15 -16 18 -2 -17 -4 21 22 23 24 -7 -26 -27 -28 -29 -30
right_child=1 2 3 4 6 20 7 11 13 -11 -12 12 -14 14 15 16 -18 -19 -20 -21 -22 -23 -24 -25 25 26 27 28 29 -31
leaf_value=0.071975730406546617 0.0096025399165473938 -0.11635479924178722 0.01746011898721125 -0.11733706553113406 0.017630922020331063 0.050028664130048306 -0.12522220427895644 0.029310380278400862 0.038474215872189549 0.024044269253143184 -0.16632462829206451 -0.15316324771964451 0.020990495130070438 -0.14466430666832247 0.057313575422455069 -0.36563478306368619 0.051774995549516915 -0.015386630653183457 -0.1463905591689916 -0.014384107078257295 0.030218261491136239 -0.16459803550651464 0.074899334930224035 -0.16324416572438641 -0.16829023368040708 0.064214238201266469 -0.1682977059417429 0.059387151564337819 -0.16784005798619872 0.013809519135352605
leaf_weight=9315.5127508491278 23475.380477398634 21478.880394436419 13516.444753572345 10251.788833975792 26074.28838904202 4683.881479203701 4202.1902939453721 9994.5308709144592 39778.642055615783 32142.023980557919 469.4281495064497 1560.9978856146336 4239.267026245594 3472.044212475419 12480.191326260567 251.7971408367157 4631.1344375610352 47505.940627753735 797.25684022903442 24872.838187456131 22084.015228554606 1455.6944917589426 2083.8275215476751 858.17428220808506 1044.6429914832115 3535.7029056996107 1164.4427673965693 5019.6837329268456 1288.8260377645493 27524.01010261476
leaf_count=57564 98027 182169 56135 84295 108754 19609 29759 41183 194052 134259 2056 7669 17349 20039 62547 1270 22895 198743 4019 102376 91613 6640 8755 3886 4552 14869 5077 21094 5630 115916
internal_value=0 -0.00882223 -0.0200541 -0.00374848 -0.0200019 0.00289455 0.00165714 -0.0191713 0.034569 0.00923075 -0.00816801 0.0090435 -0.0258787 0.0288947 0.0112795 0.0410941 0.00545762 -0.00712206 -0.199014 -0.0031721 0.0140678 0.00673786 0.0120217 0.00911768 0.0124596 0.00801337 0.0127931 0.00759804 0.013652 0.00568416
internal_weight=0 290527 148333 126854 56323.1 142194 46071.3 19997 70726.6 70531.3 71450.7 15794.8 5800.26 61411.1 21632.4 18160.4 5680.19 70981.3 1049.05 38389.3 70742.9 48658.9 47203.2 45119.4 44261.2 39577.3 38532.7 34997 33832.5 28812.8
internal_count=1722801 1360415 763948 581779 289009 596467 204714 95960 362386 292770 298826 66201 25018 304822 110770 90731 28184 296770 5289 158511 297641 206028 199388 190633 186747 167138 162586 147717 142640 121546
shrinkage=0.1


Tree=15
num_leaves=31
num_cat=0
split_feature=4 4 4 4 1 1 1 1 1 1 1 1 1 1 1 1 1 1 1 1 1 1 1 1 4 4 4 4 1 1
split_gain=9245.22 5017.03 3412.35 3359.42 2017.38 5434.62 3165.75 6325.31 3295.84 7239.63 3321.09 7125.08 2732.06 7219.82 2409.84 6693.93 2282.76 6008.76 1970.67 5428.32 1991.23 4434.46 1603.72 3496.57 1402.57 1566.09 1504.68 1909.98 1279.35 5518.56
threshold=13.67005454022417 13.974453749184086 13.990036614202952 8.3902975980743282 6.0002168274823466 6.9999119637699208 7.0000232207247164 7.9791993952800926 8.0004853010685704 8.9999931022678368 9.0001071044519509 9.9857926420898071 10.000016891673031 10.969457995161383 11.000035595641149 11.999962074327003 12.000287474175687 12.99973531389041 13.000108525553943 13.999756211570203 14.000088007090467 14.999976204489768 15.000038827156978 15.942517515895231 8.8998863277013545 8.670100859508354 9.1702107319460922 9.4021899665596909 5.9997458260615675 5.0001909294964548
decision_type=2 2 2 2 2 2 2 2 2 2 2 2 2 2 2 2 2 2 2 2 2 2 2 2 2 2 2 2 2 2
left_child=3 -2 -3 -1 28 -6 -7 -8 -9 -10 -11 -12 -13 -14 -15 -16 -17 -18 -19 -20 -21 -22 -23 -24 25 -5 -26 -28 29 -4
right_child=1 2 4 24 5 6 7 8 9 10 11 12 13 14 15 16 17 18 19 20 21 22 23 -25 26 -27 27 -29 -30 -31
leaf_value=0.040557968211209196 -0.13125766116480972 0.048476118952539504 0.020185403386927678 -0.018361092736451687 -0.15145224583115988 0.038758589994740272 -0.15079061618597989 0.035932589623230475 -0.15140468409283428 0.034364386455110023 -0.1508016542000129 0.029551390955449553 -0.15376562583738695 0.028378702428041226 -0.15291443032121577 0.03088373269078612 -0.1532456864329558 0.032014278464932357 -0.15630550391810699 0.037082582398752187 -0.15525533370037575 0.036598771447154455 -0.15467374291916969 -0.015203374120787814 0.048509498155534327 -0.18207382619019374 -0.12482275629914288 0.0079670019103944122 0.045311055053407885 -0.15104121492126821
leaf_weight=41527.176552936435 3736.7089794576168 8285.8697754815221 12256.687552630901 2493.0066004097462 3153.1114021167159 8974.2868959903717 3741.3605731576681 10102.444893345237 4270.4324819222093 10655.511682525277 4266.687297962606 10443.535067871213 4121.0608345344663 9811.7914542630315 3840.0981410741806 8618.1660592332482 3401.4747441634536 7319.6283132657409 2900.8652361705899 6275.368859924376 2401.3730787709355 5175.6539531797171 1908.000622279942 31049.140972219408 9294.497375190258 763.20155635476112 1092.6873551011086 124439.56477876008 7266.4402649626136 2223.7831897139549
leaf_count=229574 20240 35126 55533 12115 19057 38765 22786 43764 25926 45996 26094 45296 24946 42648 23489 37311 20752 31624 17598 27110 14783 22334 11783 151292 45609 3901 5366 577283 31197 13503
internal_value=0 -0.0166209 -0.0141371 0.0156195 -0.0172971 -0.0216286 -0.0186895 -0.0226461 -0.0188579 -0.0236108 -0.0187464 -0.0243202 -0.0187719 -0.0245845 -0.0181474 -0.0244103 -0.0172637 -0.0241301 -0.0164291 -0.0235622 -0.0153359 -0.0234511 -0.0151509 -0.0232778 0.00811944 -0.0567327 0.00968568 0.00681114 0.0110716 -0.00611007
internal_weight=0 176199 172463 179610 164177 142430 139277 130303 126561 116459 112188 101533 97266.2 86822.6 82701.6 72889.8 69049.7 60431.5 57030 49710.4 46809.5 40534.2 38132.8 32957.1 138083 3256.21 134827 125532 21746.9 14480.5
internal_count=1722801 848953 828713 873848 793587 693354 674297 635532 612746 568982 543056 497060 470966 425670 400724 358076 334587 297276 276524 244900 227302 200192 185409 163075 644274 16016 628258 582649 100233 69036
shrinkage=0.1


Tree=16
num_leaves=31
num_cat=0
split_feature=4 4 4 4 0 2 2 3 3 3 3 3 3 3 3 3 3 3 3 3 3 3 3 3 3 3 3 2 2 3
split_gain=7620.8 4225.84 2838.03 2802.73 1870.18 1552.07 6994.89 1443.64 9799.77 1754.11 5080.47 1750.03 4883.28 1876.58 7374.56 1260.49 7334.16 1562.25 7873.01 2254.62 8641.86 2000.65 7622.25 2443.84 7423.36 3183.16 10258.3 1043.35 7672.85 1028.05
threshold=13.67005454022417 13.974453749184086 7.9002221924550691 13.990036614202952 9601.2268457127539 1.0000000180025095e-35 0.99998057679780061 9.9999413118525116 9.0001294900952491 8.9982488625754868 8.0000408452377592 7.9942892277552504 7.0004576834151537 6.999995693466583 6.0002884565291286 1.0000000180025095e-35 0.98277227409373225 1.0001313959644516 1.9914816444224515 2.000075587337458 2.9909130349242594 3.0004024780421115 3.9998625034769115 4.0000711912822959 4.9998503404882957 5.000077101108193 5.999985419778926 1.0000000180025095e-35 0.99998057679780061 9.9999413118525116
decision_type=2 2 2 2 2 2 2 2 2 2 2 2 2 2 2 2 2 2 2 2 2 2 2 2 2 2 2 2 2 2
left_child=2 -2 27 -3 29 -6 -7 8 9 10 11 12 13 14 15 -4 -17 -18 -19 -20 -21 -22 -23 -24 -25 -26 -27 -1 -29 -5
right_child=1 3 7 4 5 6 -8 -9 -10 -11 -12 -13 -14 -15 -16 16 17 18 19 20 21 22 23 24 25 26 -28 28 -30 -31
leaf_value=0.055130356758209709 -0.12219206127355814 0.043944518343840729 0.040467778615058819 -0.0058658880400414498 -0.0096801918851100819 -0.1126246314971719 -0.019253715862035226 0.023253941811522866 -0.186442689497684 0.069998533354565268 -0.1834414208265911 0.063596816801186562 -0.18405590462308352 0.065974777634477927 -0.18685755396688414 -0.18090137577308796 0.05022277169913221 -0.17955431609670272 0.050818751764865611 -0.18120642870015463 0.050815555911622207 -0.18979994810653669 0.063052769598546318 -0.19561331510982993 0.066317690726498554 -0.19674344460401927 0.021044942137650249 -0.19367635090246255 0.054284230373872269 0.032260999989341579
leaf_weight=20313.612684041262 3618.7473364025354 8229.3266663402319 10288.01490753144 31592.122104369104 54982.722982630134 9338.5633639320731 56970.749359235168 46022.148997180164 2689.0721470490098 4233.3811040967703 1421.2037250474095 5172.6595846712589 1363.0707675144076 5032.3356751203537 1994.9129508286715 2103.9583566039801 7985.3013623654842 2269.7521155923605 11105.740090489388 2473.6460625827312 9767.4542280063033 2002.5949534252286 7110.1291741430759 1859.8022091314197 7398.4586979821324 2557.521782591939 14011.298979535699 1485.0732707083225 7815.0841841101646 9111.8725106343627
leaf_count=121486 20240 35126 47271 155277 231581 95743 269965 211923 14542 19290 7880 23514 7559 22871 10940 11730 36598 12730 50939 13684 44625 10813 32038 9961 33263 13596 63989 6352 46254 41021
internal_value=0 -0.0152597 0.0141574 -0.0129864 -0.0158785 -0.0221028 -0.0324035 0.00853304 0.00194527 0.00700351 0.00422319 0.00704562 0.0037708 0.00668142 0.00308333 0.00776514 0.0030027 0.00864783 0.00316553 0.0102809 0.000738793 0.0108058 -0.00037897 0.0111379 -0.00315413 0.0117802 -0.0125723 0.0424299 0.0146892 0.00266908
internal_weight=0 173844 178476 170225 161996 121292 66309.3 148862 102840 100151 95917.9 94496.7 89324 87960.9 82928.6 80933.7 70645.7 68541.7 60556.4 58286.6 47180.9 44707.3 34939.8 32937.2 25827.1 23967.3 16568.8 29613.8 9300.16 40704
internal_count=1722801 848953 873848 828713 793587 597289 365708 699756 487833 473291 454001 446121 422607 415048 392177 381237 333966 322236 285638 272908 221969 208285 163660 152847 120809 110848 77585 174092 52606 196298
shrinkage=0.1


Tree=17
num_leaves=31
num_cat=0
split_feature=4 5 1 1 1 1 1 1 1 1 1 1 1 1 1 1 3 3 4 3 3 3 3 3 3 1 1 1 1 3
split_gain=6445.25 2741.08 1826.31 4433.27 2247.22 4988.79 2196.06 5838.67 2227.22 5546.98 1743.37 5600.48 1674.43 5078.06 1543.32 4751.75 1480.4 6281.14 1346.9 1240.9 3701.31 1262.28 3893.55 1386.43 5249.65 1157.15 4346.61 1471.03 3457.2 1071.45
threshold=9.9900661241096476 684.95140927086175 6.0002168274823466 6.9999119637699208 7.0000232207247164 7.9791993952800926 8.0004853010685704 8.9999931022678368 9.0001071044519509 9.9857926420898071 10.000016891673031 10.969457995161383 11.000035595641149 11.999962074327003 12.000287474175687 12.99973531389041 9.9999413118525116 9.0001294900952491 5.321636305970828 8.9982488625754868 8.0000408452377592 7.9942892277552504 7.0004576834151537 6.999995693466583 6.0002884565291286 13.000108525553943 13.999756211570203 14.000088007090467 14.999976204489768 1.0000000180025095e-35
decision_type=2 2 2 2 2 2 2 2 2 2 2 2 2 2 2 2 2 2 2 2 2 2 2 2 2 2 2 2 2 2
left_child=18 2 -2 -4 -5 -6 -7 -8 -9 -10 -11 -12 -13 -14 -15 -16 17 19 -1 20 21 22 23 24 29 -17 -27 -28 -29 -3
right_child=1 16 3 4 5 6 7 8 9 10 11 12 13 14 15 25 -18 -19 -20 -21 -22 -23 -24 -25 -26 26 27 28 -30 -31
leaf_value=0.088725610812185315 0.011435737005689983 0.036880103115936709 -0.15306451679485833 0.029614232787516022 -0.15281616868550799 0.025507766274855861 -0.15441700172419601 0.024480729536009622 -0.15370921786713673 0.019911841875689264 -0.15735803181378982 0.020942891799318838 -0.15640110601911064 0.022521160270706192 -0.15779667293417399 0.020176685750753376 0.019235836112016496 -0.14569545863882516 0.024322206438594243 0.058403289443142659 -0.14334820821867994 0.054103247012163749 -0.14751814213851006 0.056628282823073396 -0.14915142348853702 -0.16081497914498694 0.030589843948157908 -0.15866635601034812 -0.016958306275722517 -0.00073938636558924776
leaf_weight=3423.2994762957096 20467.500397637486 8625.8917351737618 2482.5801521241665 9144.995608381927 2838.390335701406 10269.731729462743 3272.5852753967047 10680.126986593008 3171.9715884104371 10130.649760335684 3034.7413351088762 9291.294355802238 2790.8853486925364 7986.157848007977 2550.7717708423734 6890.510596588254 41113.25502923876 3008.7248766645789 63151.102752804756 3639.0868078619242 1793.8468008711934 4377.324526540935 1774.5156816318631 4428.0522372126579 2315.8165052011609 2202.291543148458 5688.6043086796999 1813.9235808774829 33830.33409242332 61901.406850427389
leaf_count=24096 94668 38543 15246 40187 17653 45365 20190 46900 19764 44722 18685 40954 17366 35157 15721 30344 187347 20169 338290 15944 12340 19140 11827 19344 15235 13499 24967 11387 165098 302653
internal_value=0 -0.0069649 -0.0163013 -0.0207341 -0.0181182 -0.021867 -0.0185952 -0.0229783 -0.0186795 -0.0238367 -0.0190582 -0.0242474 -0.0187172 -0.0244971 -0.0184585 -0.0246362 0.00346399 -0.00359456 0.0276339 0.00121708 -0.00122499 0.00183108 -0.0010636 0.0022997 -0.00100288 -0.0179003 -0.0239269 -0.0166333 -0.0241698 0.00386169
internal_weight=0 281516 148538 128071 125588 116443 113605 103335 100062 89382.1 86210.2 76079.5 73044.8 63753.5 60962.6 52976.4 132978 91864.7 66574.4 88855.9 85216.9 83423 79045.7 77271.2 72843.1 50425.7 43535.2 41332.9 35644.3 70527.3
internal_count=1722801 1360415 717873 623205 607959 567772 550119 504754 484564 437664 417900 373178 354493 313539 296173 261016 642542 455195 362386 435026 419082 406742 387602 375775 356431 245295 214951 201452 176485 341196
shrinkage=0.1


Tree=18
num_leaves=31
num_cat=0
split_feature=4 4 0 2 2 4 2 2 4 4 4 4 3 3 1 1 1 1 1 1 1 1 1 1 1 1 1 1 1 1
split_gain=5439.53 2134.46 2125.07 1699.57 10011 1616.04 1218.09 5392.61 1209.82 1698.42 1288.07 3372.12 934.119 1926.85 902.221 5315.99 1473.16 6399.3 1475.5 7020.87 1714.25 6711.6 1420 6511.82 1266.07 6111.52 1277.16 5708.09 1047.31 4982.05
threshold=12.120280926816868 12.289982797294332 7811.3832686103979 1.0000000180025095e-35 0.99998057679780061 7.2601982127886133 1.0001011059636042 1.9999378119080078 12.119964748531865 11.990067561836968 11.989992139308988 11.670248210900272 9.9999413118525116 9.0001294900952491 6.0002168274823466 6.9999119637699208 7.0000232207247164 7.9791993952800926 8.0004853010685704 8.9999931022678368 9.0001071044519509 9.9857926420898071 10.000016891673031 10.969457995161383 11.000035595641149 11.999962074327003 12.000287474175687 12.99973531389041 13.000108525553943 13.999756211570203
decision_type=2 2 2 2 2 2 2 2 2 2 2 2 2 2 2 2 2 2 2 2 2 2 2 2 2 2 2 2 2 2
left_child=5 -2 12 -4 -5 -1 -6 -8 9 10 11 14 13 -3 -7 -16 -17 -18 -19 -20 -21 -22 -23 -24 -25 -26 -27 -28 -29 -30
right_child=1 2 3 4 6 8 7 -9 -10 -11 -12 -13 -14 -15 15 16 17 18 19 20 21 22 23 24 25 26 27 28 29 -31
leaf_value=0.045905926011896615 -0.1270070766378438 0.0059418935219988185 -0.0035887633852119114 -0.11169761478291838 0.00020168281436022808 0.036782948212331537 -0.11291443175271076 -0.0074979242247783743 0.095774668319253395 -0.095242264858307238 0.057036391600549491 -0.098124651636160687 0.035945872240166217 -0.15049132017976999 -0.21789619824969997 0.058840877848363948 -0.21942885522636169 0.055975110743734714 -0.21789787336458583 0.058700602343062402 -0.21798457893191589 0.054267092065842931 -0.2203192612272955 0.053351452283460457 -0.21733385512459591 0.056308430218965158 -0.21993754305637481 0.054977000232983089 -0.21971471588700073 0.012476646733151494
leaf_weight=16415.347439795732 1537.3346307501197 35025.789578162134 84529.638340517879 11227.266855247319 44353.115780040622 13387.099011860788 5793.7203158140182 29876.785099737346 1702.0955425575376 1489.299213051796 6059.2358659356833 2825.6154518127441 10824.913981646299 805.4998122677207 1021.8543413355947 6104.7694953754544 1219.7073748111725 6773.0537515431643 1359.8928828984499 6923.82687304914 1307.099187746644 6744.5241972133517 1246.4095614254475 6202.8815229684114 1201.4159486144781 5501.824465945363 1097.7862582951784 4810.5642794147134 957.36376147717237 26590.838068634272
leaf_count=107758 8392 170269 358902 125823 182565 65679 59672 136539 7648 7787 27841 15333 48714 5440 5320 29877 6347 33184 7121 33972 6865 33144 6497 30498 6343 27122 5786 23729 5031 133603
internal_value=0 -0.00958112 -0.00876955 -0.0138052 -0.0232691 0.0167367 -0.0108626 -0.02462 0.0121558 0.0107716 0.0123297 0.00948651 0.0102025 0.00242522 0.0127755 0.00871053 0.0116776 0.00767525 0.0115923 0.00689118 0.0117756 0.00593843 0.0113233 0.00523974 0.0113036 0.00480915 0.0116597 0.00431735 0.0119253 0.00440746
internal_weight=0 223974 222437 175781 91250.9 120943 80023.6 35670.5 104527 102825 101336 95276.5 46656.2 35831.3 92450.9 79063.8 78042 71937.2 70717.5 63944.4 62584.5 55660.7 54353.6 47609.1 46362.7 40159.8 38958.4 33456.6 32358.8 27548.2
internal_count=1722801 1096316 1087924 863501 504599 626485 378776 196211 518727 511079 503292 475451 224423 175709 460118 394439 389119 359242 352895 319711 312590 278618 271753 238609 232112 201614 195271 168149 162363 138634
shrinkage=0.1


Tree=19
num_leaves=31
num_cat=0
split_feature=5 1 1 1 1 1 1 1 1 1 1 1 1 1 1 1 1 1 1 1 1 2 2 1 1 1 1 1 1 2
split_gain=4924.6 2198.59 7606.97 3120.15 8638.59 3134.87 9900.61 3247.62 9509.61 2613.12 9696.41 2421.6 8928.17 2355.5 8300.16 1886.66 7542.87 2028.66 6546.32 1786.56 5437.26 1599.84 10421.3 1458 5281.37 1553.12 3926.19 1336.12 8376.47 1300.66
threshold=704.99915304537728 6.0002168274823466 6.9999119637699208 7.0000232207247164 7.9791993952800926 8.0004853010685704 8.9999931022678368 9.0001071044519509 9.9857926420898071 10.000016891673031 10.969457995161383 11.000035595641149 11.999962074327003 12.000287474175687 12.99973531389041 13.000108525553943 13.999756211570203 14.000088007090467 14.999976204489768 15.000038827156978 15.942517515895231 1.0000000180025095e-35 0.99998057679780061 16.000655496985534 16.994688032542786 17.000473656606662 17.947181176565469 5.9997458260615675 5.0001909294964548 1.0001011059636042
decision_type=2 2 2 2 2 2 2 2 2 2 2 2 2 2 2 2 2 2 2 2 2 2 2 2 2 2 2 2 2 2
left_child=1 27 -3 -4 -5 -6 -7 -8 -9 -10 -11 -12 -13 -14 -15 -16 -17 -18 -19 -20 -21 -2 -23 -22 -25 -26 -27 28 -1 -24
right_child=21 2 3 4 5 6 7 8 9 10 11 12 13 14 15 16 17 18 19 20 23 22 29 24 25 26 -28 -29 -30 -31
leaf_value=0.024731510172422196 0.029832108873716286 -0.15468428458891881 0.034516990375329612 -0.15392036263933229 0.031604254763089881 -0.15482360328329747 0.031103530348653513 -0.15415104401975988 0.02708187088023958 -0.15761117593141649 0.027394681210754737 -0.15707231817805142 0.02977956621551503 -0.15832825867431033 0.028866649246943196 -0.16139024542110333 0.034647418983923789 -0.16394275050324519 0.036126928971860366 -0.16555403586283873 0.035547672825122216 -0.12738346313111784 0.038937954146988384 -0.16831919954874144 0.043152908194709044 -0.16840883345669522 -0.0060692575297165161 0.042040419635164972 -0.16204274225306492 -0.00061325346706826061
leaf_weight=18698.988788761199 55752.724843755364 3653.3443931639194 15186.050648145378 4228.3511462882161 16972.674772396684 4814.5244479365647 17721.44618242234 4700.6940459422767 17100.271214462817 4567.8178840018809 15740.073195032775 4225.6331671923399 13740.376686312258 3849.7760705053806 11818.48822209239 3323.2036108523607 9940.1449596956372 2781.4363520368934 8275.782383017242 2261.1833029277623 6931.2198029011488 5272.5048810504377 21236.044573456049 2104.4920518994331 5580.5924469307065 1566.4878770262003 30424.25719293952 12344.69556184113 2754.9649629555643 13665.002489693463
leaf_count=87128 277420 23564 69290 27688 77512 31352 80672 30911 78028 29487 71730 27578 62638 25017 53865 21385 45046 18185 37587 14471 31717 49626 102399 12975 25356 9778 152034 56071 16958 75333
internal_value=0 -0.00785344 -0.0116379 -0.00912365 -0.0125634 -0.00939152 -0.0134495 -0.00936525 -0.0141806 -0.00961881 -0.0145554 -0.00922383 -0.0146195 -0.00875232 -0.0147107 -0.00820659 -0.0141932 -0.00719163 -0.0141317 -0.00683976 -0.0141161 0.0188697 0.00365609 -0.00676897 -0.0141615 -0.00552667 -0.0140185 0.0158293 0.000747282 0.0234522
internal_weight=0 245307 211508 207855 192669 188441 171468 166653 148932 144231 127131 122563 106823 102597 88857.1 85007.3 73188.8 69865.6 59925.5 57144 48868.2 95926.3 40173.6 46607 39675.8 37571.3 31990.7 33798.6 21454 34901
internal_count=1722801 1218023 1057866 1034302 965012 937324 859812 828460 747788 716877 638849 609362 537632 510054 447416 422399 368534 347149 302103 283918 246331 504778 227358 231860 200143 187168 161812 160157 104086 177732
shrinkage=0.1


Tree=20
num_leaves=31
num_cat=0
split_feature=4 4 4 5 4 0 4 4 3 3 3 3 3 3 3 3 3 3 3 3 3 3 3 3 4 5 0 3 3 3
split_gain=4094.63 3366.01 1891.97 1727.67 1500.73 1333.38 1235.09 978.331 887.985 4660.95 817.826 4283.5 826.269 3426.39 1123.73 3971.13 1449.59 4440.72 1447.54 3791 1490.54 3693.12 1601.68 4753.83 813.627 775.625 774.52 726.068 3374.88 1094.82
threshold=13.67005454022417 13.974453749184086 13.990036614202952 709.7820930999959 14.055893597963129 4962.5000000000009 21.490181505172462 5.321636305970828 9.9999413118525116 9.0001294900952491 9.9999413118525116 9.0001294900952491 1.0000000180025095e-35 0.98277227409373225 1.0001313959644516 1.9914816444224515 2.000075587337458 2.9909130349242594 3.0004024780421115 3.9998625034769115 4.0000711912822959 4.9998503404882957 5.000077101108193 5.999985419778926 13.728869893526447 705.00076280569203 4962.5000000000009 6.0002884565291286 6.999995693466583 7.0004576834151537
decision_type=2 2 2 2 2 2 2 2 2 2 2 2 2 2 2 2 2 2 2 2 2 2 2 2 2 2 2 2 2 2
left_child=3 24 -3 25 -4 -6 10 -5 9 -9 11 12 -7 -14 -15 -16 -17 -18 -19 -20 -21 -22 -23 -24 -2 26 -1 -25 -29 -30
right_child=1 2 4 7 5 6 -8 8 -10 -11 -12 -13 13 14 15 16 17 18 19 20 21 22 23 27 -26 -27 -28 28 29 -31
leaf_value=0.02929536910942809 -0.032083391888339086 0.037784153081022863 -0.14118000009995491 0.085032747353277649 0.018682837835697387 0.021073583303717787 -0.03509524164114057 0.018870427617063448 0.04056278667053663 -0.20612378319477553 0.0024824656627520222 -0.13724233935689509 -0.14312238159696433 0.031756558478243005 -0.14330204864224516 0.029762823499153532 -0.14334702188124532 0.032893269523771689 -0.14395673682807716 0.041311742484010858 -0.1453216314260701 0.04110502782046397 -0.14641406128215875 0.016435238529452608 -0.14200299787710846 -0.18627649107093905 0.001000373103491564 -0.13792857045455614 0.043999527814821249 -0.017977269388069185
leaf_weight=10699.713097501546 937.54704571515322 8064.7257818505168 892.61024877801538 2565.6337611079216 13667.772492066026 7224.0092105269432 23248.591857027262 36640.858548648655 17358.635478116572 944.46252417564392 36830.193775579333 2789.9962286613882 2010.1692603304982 5723.3442784510553 2307.0356333702803 8096.3679695762694 2590.9058915190399 7057.4936442673206 2196.1536379531026 5131.6110249981284 2089.7160695306957 5490.1928344927728 2613.9319969676435 9862.9387938827276 2390.1623368002474 215.29399517551064 100932.07110825554 2048.8477020002902 3961.7412266768515 10159.293068956584
leaf_count=53414 5126 35126 5180 20193 67033 32329 126773 198753 91512 5799 171626 21671 14424 25088 16556 35795 18558 30943 15830 22241 15028 23740 18459 44162 15114 1326 502851 15831 16975 55345
internal_value=0 -0.0114653 -0.00944564 0.0105892 -0.0118874 -0.0111433 -0.0140256 0.0246747 0.0218562 0.0132167 -0.00988094 -0.0154781 -0.0111539 -0.0144173 -0.0106856 -0.0145046 -0.0096572 -0.0156561 -0.0091194 -0.0159271 -0.00912861 -0.0162736 -0.00837387 -0.0178566 -0.111034 0.00334669 0.0037124 -0.00494823 -0.0179912 -0.000589306
internal_weight=0 167385 164058 169357 155993 155100 141433 57509.6 54944 37585.3 118184 81353.7 78563.8 71339.7 69329.6 63606.2 61299.2 53202.8 50611.9 43554.4 41358.3 36226.7 34136.9 28646.8 3327.71 111847 111632 26032.8 16169.9 14121
internal_count=1722801 848953 828713 873848 793587 788407 721374 316257 296064 204552 594601 422975 401304 368975 354551 329463 312907 277112 258554 227611 211781 189540 174512 150772 20240 557591 556265 132313 88151 72320
shrinkage=0.1


Tree=21
num_leaves=31
num_cat=0
split_feature=5 0 2 2 2 2 2 2 4 4 3 3 2 2 3 3 3 3 3 3 3 3 3 3 3 3 5 2 2 3
split_gain=3619.97 1699.81 1387.89 10269.4 1196.92 7115.59 1110.87 5515.49 1012.33 976.488 907.278 3024.57 771.243 3579.23 711.597 2788.85 868.03 3244.41 1121.54 3340.3 1072.19 2806.43 1193.67 2659.55 1308.2 3947.01 695.261 671.112 2561.46 631.922
threshold=699.99652420982807 9987.5000000000018 1.0000000180025095e-35 0.99998057679780061 1.0000000180025095e-35 0.99998057679780061 1.0001011059636042 1.9999378119080078 7.2601982127886133 7.9002221924550691 9.9999413118525116 9.0001294900952491 1.0001011059636042 1.9999378119080078 1.0000000180025095e-35 0.98277227409373225 1.0001313959644516 1.9914816444224515 2.000075587337458 2.9909130349242594 3.0004024780421115 3.9998625034769115 4.0000711912822959 4.9998503404882957 5.000077101108193 5.999985419778926 695.00065697982234 2.000094167317954 2.9879296396698867 8.9982488625754868
decision_type=2 2 2 2 2 2 2 2 2 2 2 2 2 2 2 2 2 2 2 2 2 2 2 2 2 2 2 2 2 2
left_child=1 10 8 -4 26 -6 -5 9 -2 -8 11 14 -7 -14 -1 -16 -17 -18 -19 -20 -21 -22 -23 -24 -25 -26 -3 -9 -29 -27
right_child=2 4 3 6 5 12 7 27 -10 -11 -12 -13 13 -15 15 16 17 18 19 20 21 22 23 24 25 29 -28 28 -30 -31
leaf_value=0.035722048143080241 0.055056443277611861 -0.0047001934528643702 -0.12407683130752473 0.031938191098018022 -0.11252641894056498 -0.0027094926627206227 -0.32770815813876386 0.04132045039844473 0.018816666199348117 -0.11763251755833513 0.023397346196465506 -0.15618442199659113 -0.11428514394794226 -0.0099018821785432139 -0.15439209678153815 0.043428866990263271 -0.1546075198313685 0.041915146466324965 -0.1548896970028609 0.043584920349607266 -0.15688946497972278 0.053427704702245629 -0.15917090830655339 0.054131372522660398 -0.16206472668672389 -0.0037831318373094686 -0.15763705741766684 -0.1524413124154973 0.027496770231513895 0.056761021877680319
leaf_weight=5502.5437029413879 8944.7190551161766 76329.814728312194 5739.660196442157 24966.717825204134 7941.1081823334098 36695.983989283442 245.32628060877323 8218.1395221203566 55759.715391516685 2256.1459287777543 19013.216496497393 1242.2020411156118 3846.0793652273715 22515.109289392829 1175.2310244366527 4482.6168987452984 1363.4904651790857 6064.5858820602298 1419.9347100332379 5174.1496962569654 1179.6864894516766 3707.6031306907535 1103.3590231984854 3716.2483484447002 1581.6524323783815 16363.110166467726 298.41313742101192 957.64795619621873 4549.433528020978 1926.9400100186467
leaf_count=25638 64704 341387 60373 121181 99244 158188 1172 38640 259293 22391 90587 8684 44843 105635 8083 20755 9429 28086 9701 23972 8020 16956 7486 16971 10502 82284 1518 7374 20822 8882
internal_value=0 -0.00773438 0.0143304 0.00123853 -0.013963 -0.0233175 0.0186993 -0.00167038 0.0238264 -0.138235 0.00452304 -0.00188481 -0.012083 -0.0251313 0.00161532 -0.00219464 0.00152529 -0.00278283 0.00211832 -0.00455387 0.00158858 -0.00575779 0.000520193 -0.00742431 -0.000326148 -0.0105104 -0.00529578 0.0232191 -0.00379337 0.00259547
internal_weight=0 222643 111638 46933.1 147627 70998.3 41193.4 16226.7 64704.4 2501.47 75016.6 56003.4 63057.2 26361.2 54761.2 49258.6 48083.4 43600.8 42237.3 36172.7 34752.7 29578.6 28398.9 24691.3 23588 19871.7 76628.2 13725.2 5507.08 18290.1
internal_count=1722801 1126851 595950 271953 750815 407910 211580 90399 323997 23563 376036 285449 308666 150478 276765 251127 243044 222289 212860 184774 175073 151101 143081 126125 118639 101668 342905 66836 28196 91166
shrinkage=0.1


Tree=22
num_leaves=31
num_cat=0
split_feature=4 0 5 5 4 3 3 1 1 1 1 1 1 1 1 1 1 3 3 3 3 3 3 4 1 1 1 1 1 1
split_gain=3234.15 1753.12 1672.62 1213.22 949.677 848.049 4111.31 828.465 2269.69 1147.31 2583.01 970.647 3006.43 977.125 3580.72 1038.02 3456.08 796.738 2631.59 826.174 2735.98 817.221 3488.79 779.457 772.16 3530.77 798.442 3207.78 715.328 3028.78
threshold=9.9900661241096476 4962.5000000000009 684.95140927086175 680.00127730973065 5.321636305970828 9.9999413118525116 9.0001294900952491 5.0001909294964548 5.9997458260615675 6.0002168274823466 6.9999119637699208 7.0000232207247164 7.9791993952800926 8.0004853010685704 8.9999931022678368 9.0001071044519509 9.9857926420898071 8.9982488625754868 8.0000408452377592 7.9942892277552504 7.0004576834151537 6.999995693466583 6.0002884565291286 6.0287118615057205 10.000016891673031 10.969457995161383 11.000035595641149 11.999962074327003 12.000287474175687 12.99973531389041
decision_type=2 2 2 2 2 2 2 2 2 2 2 2 2 2 2 2 2 2 2 2 2 2 2 2 2 2 2 2 2 2
left_child=4 -2 3 7 -1 6 17 -3 -9 -10 -11 -12 -13 -14 -15 -16 -17 18 19 20 21 22 -4 -6 -18 -26 -27 -28 -29 -30
right_child=1 2 5 -5 23 -7 -8 8 9 10 11 12 13 14 15 16 24 -19 -20 -21 -22 -23 -24 -25 25 26 27 28 29 -31
leaf_value=0.0768968915847799 0.019923345423883632 0.014877301456570608 0.001073481967867307 -0.13576824377803165 -0.096231495430256997 0.013335679637086872 -0.13702175510499473 -0.14735112314439799 0.026338905945155918 -0.13963349230232697 0.017926534345297292 -0.13979593874266547 0.015382388790476032 -0.14113005808026588 0.015344625397945158 -0.14074504077901515 0.011275884477662238 0.047508060770843775 -0.13839310278542535 0.044089456237482991 -0.14152282545463657 0.043928721687330759 -0.14146798418688863 0.018638918081470265 -0.14327792131663467 0.013274928541883033 -0.1425778651277384 0.014149659268086518 -0.14343052336378184 -0.014489976790636062
leaf_weight=2818.1211914718151 25303.226696811616 8713.1493036299944 60883.815030984581 835.59575099125504 596.70690868794918 37392.171319834888 2288.5699201412499 1322.4015616849065 6176.5515005290508 1717.3368683829904 7813.3653279058635 2008.0251717083156 8912.6210788041353 2350.5759003646672 9394.4179763011634 2294.7417163252831 9024.5521130785346 3242.3850467130542 1411.0077080950141 3929.4810364022851 1397.9365727268159 3953.9420511126518 1766.9168546274304 58798.457204163074 2241.1930332705379 8337.8063213303685 2053.0775090828538 7186.1146233454347 1899.1855195835233 44680.028886739165
leaf_count=24096 126265 40234 307556 7001 4081 175615 18947 9061 27648 12757 35016 15102 40144 17498 41967 17286 40506 14662 11444 17693 10945 17843 13981 334209 16593 37328 15413 32179 14036 225695
internal_value=0 -0.0051278 -0.00773391 -0.0156696 0.0201761 0.000931721 -0.00494868 -0.0148739 -0.0170818 -0.0155978 -0.0179545 -0.0160231 -0.0186656 -0.0161931 -0.0193388 -0.0160524 -0.0198477 -0.001002 -0.00314655 -0.000493578 -0.00306978 -0.000163845 -0.00294657 0.0174849 -0.0161694 -0.0198997 -0.0155896 -0.0199013 -0.0152167 -0.0197473
internal_weight=0 268530 243227 126961 62213.3 116266 78874.1 126125 117412 116090 109913 108196 100382 98374.3 89461.7 87111.1 77716.7 76585.5 73343.1 71932.1 68002.6 66604.7 62650.7 59395.2 75422 66397.4 64156.2 55818.4 53765.3 46579.2
internal_count=1722801 1360415 1234150 645464 362386 588686 413071 638463 598229 589168 561520 548763 513747 498645 458501 441003 399036 394124 379462 368018 350325 339380 321537 338290 381750 341244 324651 287323 271910 239731
shrinkage=0.1


Tree=23
num_leaves=31
num_cat=0
split_feature=5 5 1 1 1 1 1 1 1 1 1 1 1 1 1 1 1 1 1 1 1 1 3 3 1 1 1 1 1 1
split_gain=2660.96 1607.66 1482.52 6039.88 2092.68 6866.46 2106.08 7882.97 2172.56 7554.99 1742.68 7667.3 1608.41 7086.87 1565.04 6566.34 1365.76 6343.09 1478.86 5527.82 1306.22 4577.25 1139.41 5075.81 1058.54 4421.69 1134.48 3269.11 959.217 3039.89
threshold=704.99915304537728 700.00065048568183 6.0002168274823466 6.9999119637699208 7.0000232207247164 7.9791993952800926 8.0004853010685704 8.9999931022678368 9.0001071044519509 9.9857926420898071 10.000016891673031 10.969457995161383 11.000035595641149 11.999962074327003 12.000287474175687 12.99973531389041 13.000108525553943 13.999756211570203 14.000088007090467 14.999976204489768 15.000038827156978 15.942517515895231 9.9999413118525116 9.0001294900952491 16.000655496985534 16.994688032542786 17.000473656606662 17.947181176565469 18.00167980794393 18.919266777287181
decision_type=2 2 2 2 2 2 2 2 2 2 2 2 2 2 2 2 2 2 2 2 2 2 2 2 2 2 2 2 2 2
left_child=1 2 -1 -4 -5 -6 -7 -8 -9 -10 -11 -12 -13 -14 -15 -16 -17 -18 -19 -20 -21 -22 23 -2 -23 -26 -27 -28 -29 -30
right_child=22 -3 3 4 5 6 7 8 9 10 11 12 13 14 15 16 17 18 19 20 21 24 -24 -25 25 26 27 28 29 -31
leaf_value=0.014222927228686639 0.011043485158160319 -0.15137900242537664 -0.14660271851557813 0.029507301309600959 -0.14596657708245703 0.027137280425638833 -0.14676074154576366 0.026686312256514324 -0.14613941836976846 0.023354079448819152 -0.14876550636462652 0.023615504203037568 -0.1485062405873511 0.025679625867264824 -0.14940798996095619 0.026339924959514812 -0.15400863590701616 0.03157289023621361 -0.15684605422755227 0.033042715205580657 -0.15787578358572352 0.032532322416073976 0.030417357959981198 -0.171546685117 -0.15993425290951774 0.039372785318539105 -0.15978797775629228 0.039122722316239533 -0.16528385969259446 -0.00275856597065522
leaf_weight=32803.186513535678 60968.980353757739 757.9007884003222 3126.6243651472032 14910.000707697123 3611.745296344161 16684.016761295497 4118.2381225675344 17432.695186831057 4003.5882724002004 16838.448564033955 3908.4167849905789 15504.294162604958 3613.0363339707255 13530.478515036404 3292.0568467155099 11651.721542064101 2955.7560920156538 9799.8886773362756 2468.7196606062353 8157.0417655706406 2011.9775096066296 6834.8163688182831 29171.579120643437 1561.4693807847798 1875.4195915386081 5498.0621813423932 1390.1366636827588 4594.0934789590538 1208.9368570074439 23949.58649264276
leaf_count=159625 338136 5833 23218 69240 27304 77454 30922 80618 30390 77959 28987 71678 27113 62593 24596 53817 21058 45030 17940 37562 14295 31695 154521 12121 12802 25339 9626 21191 8002 122136
internal_value=0 -0.00596925 -0.00550182 -0.00868966 -0.00653195 -0.00943757 -0.00671805 -0.0101489 -0.006644 -0.0107047 -0.00680617 -0.0109606 -0.00640912 -0.010936 -0.00592644 -0.0109172 -0.00538389 -0.0106089 -0.00435626 -0.0104282 -0.00391763 -0.0102831 0.0140975 0.00648396 -0.0037352 -0.010171 -0.00250551 -0.00989887 -0.00289557 -0.0105684
internal_weight=0 236531 235773 202970 199843 184933 181321 164637 160519 143086 139083 122244 118336 102832 99218.7 85688.2 82396.2 70744.4 67788.7 57988.8 55520.1 47363 91702 62530.4 45351.1 38516.2 36640.8 31142.8 29752.6 25158.5
internal_count=1722801 1218023 1212190 1052565 1029347 960107 932803 855349 824427 743809 713419 635460 606473 534795 507682 445089 420493 366676 345618 300588 282648 245086 504778 350257 230791 199096 186294 160955 151329 130138
shrinkage=0.1


Tree=24
num_leaves=31
num_cat=0
split_feature=2 2 5 2 2 4 2 2 1 1 1 1 1 1 1 1 1 1 1 1 1 1 1 1 1 1 4 1 1 1
split_gain=2485.3 19400.5 1839.78 1641.43 10058.3 1241.5 983 5176.22 926.304 4472.43 1464.95 4532.59 1284.07 4758.08 1090.74 5440.64 1034 5993.06 947.064 5800.27 831.02 5927.12 860.716 5567.63 818.93 4902.33 775.244 748.5 4728.15 842.341
threshold=1.0000000180025095e-35 0.99998057679780061 724.99538958791948 1.0001011059636042 1.9999378119080078 9.1702107319460922 2.000094167317954 2.9879296396698867 4.0002983293903798 4.9314387179925356 5.0001909294964548 5.9997458260615675 6.0002168274823466 6.9999119637699208 7.0000232207247164 7.9791993952800926 8.0004853010685704 8.9999931022678368 9.0001071044519509 9.9857926420898071 10.000016891673031 10.969457995161383 11.000035595641149 11.999962074327003 12.000287474175687 12.99973531389041 7.9002221924550691 13.000108525553943 13.999756211570203 14.000088007090467
decision_type=2 2 2 2 2 2 2 2 2 2 2 2 2 2 2 2 2 2 2 2 2 2 2 2 2 2 2 2 2 2
left_child=2 -2 8 5 26 -3 -6 -8 -1 -10 -11 -12 -13 -14 -15 -16 -17 -18 -19 -20 -21 -22 -23 -24 -25 -26 -5 -27 -29 -30
right_child=1 3 -4 4 6 -7 7 -9 9 10 11 12 13 14 15 16 17 18 19 20 21 22 23 24 25 27 -28 28 29 -31
leaf_value=0.040281841617397729 -0.11558707593678211 0.046116831663871108 0.032752859785317577 -0.2703521665441701 0.017744175744436413 0.0070476430196540181 -0.12895604188059309 0.011344815628841492 -0.20486732404788413 0.04939996711619013 -0.16618295542287165 0.03980350770299463 -0.15381687945154748 0.033602147876679554 -0.15495844138336509 0.031439398311915417 -0.15529488237865338 0.030275783816250842 -0.1555872535264024 0.029922335189607914 -0.16037033188513936 0.032777119195782814 -0.16167580883517432 0.035333488167175332 -0.1620992438656815 0.037393738929965281 -0.11312577953569823 -0.16850974686795189 0.043853127466045021 0.003026414830704204
leaf_weight=6552.69290664047 15545.987900467589 9191.8567520529032 25152.555030427873 328.37548597157001 28248.427918106318 70641.580914646387 3142.6013908609748 16109.176199115813 1039.2006505429745 6586.027556695044 1600.5190377533436 8899.7042274773121 1966.865585938096 10611.953339472413 2219.2423515021801 11590.135281294584 2428.066599458456 11833.064450822771 2327.9244214519858 11105.313536070287 2218.4755958095193 10028.254503138363 2029.1507363170385 8599.1805277392268 1757.5362763032317 7321.5228200778365 6973.6479381881654 1551.4389928430319 6038.0200405269861 30996.013708688319
leaf_count=29359 203286 57949 139547 1438 126852 307689 30882 72543 4487 29844 8136 40797 10891 48708 12259 53044 13520 54100 12918 50679 11590 45501 10586 39135 9180 33374 88314 7579 27297 141317
internal_value=0 -0.0098154 0.00773307 0.00239775 -0.010929 0.011546 0.00586825 -0.0115575 0.003518 0.00183039 0.00334618 0.00110147 0.0031067 0.000486049 0.00296041 5.82385e-05 0.0031907 -0.000142225 0.0037899 5.76342e-05 0.0044955 0.000492463 0.00571589 0.00106048 0.00692957 0.0018052 -0.120196 0.00808024 0.00251805 0.00968279
internal_weight=0 150182 174453 134636 54802.2 79833.4 47500.2 19251.8 149300 142748 141708 135122 133522 124622 122655 112043 109824 98234 95805.9 83972.8 81644.9 70539.6 68321.1 58292.9 56263.7 47664.5 7302.02 45907 38585.5 37034
internal_count=1722801 888953 833848 685667 320029 365638 230277 103425 694301 664942 660455 630611 622475 581678 570787 522079 509820 456776 443256 389156 376238 325559 313969 268468 257882 218747 89752 209567 176193 168614
shrinkage=0.1


Tree=25
num_leaves=31
num_cat=0
split_feature=5 5 0 2 2 4 2 2 2 2 2 2 3 3 4 4 3 3 3 3 3 3 3 3 3 3 3 3 3 3
split_gain=2193.95 1514.48 1077.5 1046.87 10174.3 912.004 890.426 5112.53 644.714 2472.05 628.255 4100.61 580.132 1927.24 526.25 465.075 439.304 1789.6 469.634 2052.33 693.525 2153.45 548.257 1770.66 697.833 1639 727.822 2534.93 415.314 1878.58
threshold=689.99952643216204 685.00089134953271 9987.5000000000018 1.0000000180025095e-35 0.99998057679780061 7.9002221924550691 1.0001011059636042 1.9999378119080078 2.000094167317954 2.9879296396698867 1.0000000180025095e-35 0.99998057679780061 9.9999413118525116 9.0001294900952491 7.9002221924550691 21.490181505172462 1.0000000180025095e-35 0.98277227409373225 1.0001313959644516 1.9914816444224515 2.000075587337458 2.9909130349242594 3.0004024780421115 3.9998625034769115 4.0000711912822959 4.9998503404882957 5.000077101108193 5.999985419778926 6.999995693466583 6.0002884565291286
decision_type=2 2 2 2 2 2 2 2 2 2 2 2 2 2 2 2 2 2 2 2 2 2 2 2 2 2 2 2 2 2
left_child=1 2 12 5 -5 -2 14 -8 -9 -10 -4 -12 13 16 -6 -13 -1 -18 -19 -20 -21 -22 -23 -24 -25 -26 -27 -28 29 -29
right_child=3 -3 10 4 6 -7 7 8 9 -11 11 15 -14 -15 -16 -17 17 18 19 20 21 22 23 24 25 26 27 28 -30 -31
leaf_value=0.030655129708792618 0.038415992905202562 -0.14263364338962736 -0.0059474832475862648 -0.11872343186055863 0.056551044483143423 0.011029688009231955 -0.12609925372191164 0.030836786480522505 -0.14094985909350288 0.017672109240868056 -0.10955613208410733 -0.0081705421410218481 0.020266191311018318 -0.14846241181172842 0.0181030724937488 -0.034687854651772189 -0.14789784645915977 0.034673448752687623 -0.14732262178488401 0.035879075501657608 -0.14841206569587148 0.033689320628901225 -0.14895845566750474 0.044631272913976873 -0.15077902882387018 0.043796168289498921 -0.15402458341057523 0.002427420263849428 0.020028795892920778 -0.15494409196699477
leaf_weight=4382.8190010264516 14704.804662451148 832.39866837486625 57878.52086815238 6598.1250465475023 4036.9689685478806 70261.633345324546 2930.8392982725054 11394.706630796194 1162.7397988922894 6338.0614965930581 4761.916177701205 41553.870982185006 15273.754085887223 884.59369622170925 30128.145649448037 7866.0002502389252 831.18565715290606 3623.4678865708411 960.16271388716996 4861.4499526768923 1009.7326673585922 4168.1655254811049 831.82321921177208 2986.4795957431197 764.68012527935207 2992.2119887210429 1134.2046969849616 7338.0280914902687 6492.9433551281691 845.98903859779239
leaf_count=20982 105770 7359 265554 86183 29377 324853 34370 53888 11048 29170 78337 205988 75004 7167 136691 42988 6694 17284 7755 23164 8016 19939 6637 14109 6139 14107 8714 35371 33701 6442
internal_value=0 -0.00807434 -0.00742102 0.00854006 -0.0012738 0.0157693 0.0125667 -0.00321087 0.0158501 -0.00691674 -0.013192 -0.0209308 0.00346954 -0.00234683 0.0226461 -0.0123912 0.000643521 -0.00274303 0.000431205 -0.00317713 0.000963491 -0.00497891 0.000277179 -0.00567789 -0.000393624 -0.00726533 -0.00142903 -0.00998776 0.00114311 -0.0138402
internal_weight=0 172274 171442 147556 62589.6 84966.4 55991.5 21826.3 18895.5 7500.8 112060 54181.8 59381.7 44107.9 34165.1 49419.9 43223.3 38840.5 38009.3 34385.9 33425.7 28564.3 27554.5 23386.4 22554.5 19568.1 18803.4 15811.2 14677 8184.02
internal_count=1722801 911451 904092 811350 380727 430623 294544 128476 94106 40218 592867 327313 311225 236221 166068 248976 229054 208072 201378 184094 176339 153175 145159 125220 118583 104474 98335 84228 75514 41813
shrinkage=0.1


Tree=26
num_leaves=31
num_cat=0
split_feature=4 0 4 3 3 3 3 3 3 3 3 3 3 3 3 3 3 3 3 3 3 3 3 3 3 3 3 3 3 3
split_gain=1925.53 1116.51 901.638 890.548 5257.31 1005.29 3397.06 1055.91 3344.47 1255.51 4178.93 829.907 4484.23 1095.92 5232.92 1454.47 5892.36 1416.73 5100.5 1396.18 5145.48 1598.77 6835.44 826.996 5273.37 974.169 6068.73 1397.24 6303.45 1272.71
threshold=12.290045684249407 4510.0577948219507 5.321636305970828 9.9999413118525116 9.0001294900952491 8.9982488625754868 8.0000408452377592 7.9942892277552504 7.0004576834151537 6.999995693466583 6.0002884565291286 1.0000000180025095e-35 0.98277227409373225 1.0001313959644516 1.9914816444224515 2.000075587337458 2.9909130349242594 3.0004024780421115 3.9998625034769115 4.0000711912822959 4.9998503404882957 5.000077101108193 5.999985419778926 1.0000000180025095e-35 0.98277227409373225 1.0001313959644516 1.9914816444224515 2.000075587337458 2.9909130349242594 3.0004024780421115
decision_type=2 2 2 2 2 2 2 2 2 2 2 2 2 2 2 2 2 2 2 2 2 2 2 2 2 2 2 2 2 2
left_child=2 -2 -1 4 5 6 7 8 9 10 11 -3 -13 -14 -15 -16 -17 -18 -19 -20 -21 -22 -23 -4 -25 -26 -27 -28 -29 -30
right_child=1 3 23 -5 -6 -7 -8 -9 -10 -11 -12 12 13 14 15 16 17 18 19 20 21 22 -24 24 25 26 27 28 29 -31
leaf_value=0.069503357780366398 0.018409268995824922 0.016282447952753441 0.03992499926758291 0.0016516849413832785 -0.13324866433540269 0.033721861270713964 -0.13472695308584431 0.030537956145265006 -0.13561356113394882 0.033977095348942554 -0.13507085655615175 -0.13894554031690434 0.024295592953641833 -0.13880453211883528 0.023466374423093159 -0.139253819297221 0.025930910566129575 -0.14047946334744127 0.03195110515020682 -0.14261102932427938 0.033935767011548747 -0.14319034980169729 0.010464206473764491 -0.19395687912946091 0.047404781388378815 -0.19705907450945159 0.048022686810359969 -0.19499189852667542 0.048474193713996916 0.0054500500524063246
leaf_weight=2488.9850344508886 16822.231765089557 11893.067977942526 7860.28551832214 59007.613644588739 3547.0994547288865 5096.0883668772876 2200.4804744739085 6290.860747590661 2132.0272399224341 6356.7751780599356 2678.9606140758842 2691.4125008136034 9434.6524572521448 3112.502998618409 13312.925852235407 3484.6294674985111 11570.940361205488 2945.9878578688949 8453.3611744381487 2823.8583070524037 8943.9306903295219 3526.6071166787297 16170.04099592939 1298.7332697082311 6150.6915003359318 1444.6720651350915 8546.7005501762033 1538.1184007003903 7545.7522672265768 77408.155678756535
leaf_count=24096 86686 55050 43418 284977 34620 22342 20862 28008 19977 28252 25367 23257 42731 27098 60782 30073 52428 25499 37801 24259 39883 29838 74495 8222 33943 9187 47231 9659 41536 431224
internal_value=0 -0.00626006 0.00997506 -0.00849513 -0.013222 -0.00976403 -0.0116417 -0.00930323 -0.0115915 -0.00912947 -0.0118414 -0.0084852 -0.0118917 -0.0078101 -0.0118844 -0.00633866 -0.0131894 -0.00511944 -0.0135014 -0.00413022 -0.013824 -0.00112604 -0.017047 0.00864971 0.0062844 0.00881826 0.00635842 0.00945054 0.00563904 0.00927153
internal_weight=0 202496 114282 185674 126666 123119 118023 115823 109532 107400 101043 98363.9 86470.8 83779.4 74344.8 71232.3 57919.4 54434.7 42863.8 39917.8 31464.4 28640.6 19696.6 111793 103933 102634 96483.4 95038.7 86492 84953.9
internal_count=1722801 1074285 648516 987599 702622 668002 645660 624798 596790 576813 548561 523194 468144 444887 402156 375058 314276 284203 231775 206276 168475 144216 104333 624420 581002 572780 538837 529650 482419 472760
shrinkage=0.1


Tree=27
num_leaves=31
num_cat=0
split_feature=5 5 3 3 3 3 3 3 3 3 3 3 3 3 3 3 3 3 3 3 3 3 0 5 4 4 1 1 1 1
split_gain=1796.65 1183.66 968.935 6633.83 1069 4749.85 1060.44 4633.9 1045.74 6052.56 912.6 5520.35 1257.69 6584.58 1577.85 6923.83 1664.18 6912.22 1966.91 7030.7 2289.88 9346.55 812.595 674.34 644.647 615.29 609.246 1974.33 891.763 2212.2
threshold=684.95140927086175 680.00127730973065 9.9999413118525116 9.0001294900952491 8.9982488625754868 8.0000408452377592 7.9942892277552504 7.0004576834151537 6.999995693466583 6.0002884565291286 1.0000000180025095e-35 0.98277227409373225 1.0001313959644516 1.9914816444224515 2.000075587337458 2.9909130349242594 3.0004024780421115 3.9998625034769115 4.0000711912822959 4.9998503404882957 5.000077101108193 5.999985419778926 4962.5000000000009 739.55826945235674 8.1799772222327061 8.2400273388077974 4.0002983293903798 4.9314387179925356 5.0001909294964548 5.9997458260615675
decision_type=2 2 2 2 2 2 2 2 2 2 2 2 2 2 2 2 2 2 2 2 2 2 2 2 2 2 2 2 2 2
left_child=1 22 3 4 5 6 7 8 9 10 -2 -12 -13 -14 -15 -16 -17 -18 -19 -20 -21 24 -1 -4 -22 -11 -24 -28 -29 -30
right_child=2 -3 23 -5 -6 -7 -8 -9 -10 25 11 12 13 14 15 16 17 18 19 20 21 -23 26 -25 -26 -27 27 28 29 -31
leaf_value=0.014482661105829976 0.033820920513909815 -0.13387338840257468 0.013336919052371946 -0.15772285572213976 0.051110290068443358 -0.16609555820062588 0.047036778326189889 -0.16565831031028025 0.047246284936309189 -0.3173406574391186 -0.15963899791111272 0.043733784474699056 -0.16122252759308786 0.041579786510621372 -0.15930354124910984 0.045022105019485101 -0.1708565603345831 0.054936616252431306 -0.17299060470340585 0.056062380115256806 -0.31662333066127846 0.023311164023887262 0.027895959608749257 0.046041809851844327 -0.1592373090279452 -0.14626549526880586 -0.16970553210186645 0.031892719779960298 -0.14649477250064274 -0.01084984913031373
leaf_weight=14696.700040176511 11350.912194665521 748.73936350643635 46085.749153714627 2558.6218759305775 4839.3205166608095 1634.5785384699702 5857.7684372439981 1598.0052728857845 5787.7213823907077 237.62673088908195 2021.0654110535979 8638.9598272591829 2350.2454209756106 12189.032128434628 2543.359663054347 10590.612253140658 2224.3867180533707 7886.8411469087005 2205.7182685099542 8380.7288193702698 290.53672622144222 15455.402113188058 4045.6819175072014 7303.6863296255469 2496.5020535960793 1823.8612148873508 784.1747678257525 4766.0795085765421 1214.3984494172037 120832.14924502932
leaf_count=77382 59251 7868 236063 23970 25299 14598 30415 13852 29951 1318 15972 44842 18875 63514 20453 54930 17139 40174 16653 42543 1601 78642 19231 44631 19227 16628 4929 22319 9595 650936
internal_value=0 -0.00846106 0.00670969 0.00146287 0.00515204 0.00304519 0.0057054 0.0032367 0.00603431 0.00340409 0.00734425 0.00345501 0.00783526 0.00317965 0.0091922 0.00161121 0.00987404 0.00031476 0.010685 -0.00142109 0.0127934 -0.00708477 -0.00781939 0.017811 -0.175644 -0.165985 -0.0103092 -0.0115206 -0.0105424 -0.0121996
internal_weight=0 147088 166351 112962 110403 105564 103929 98071.5 96473.5 90685.8 88624.3 77273.4 75252.3 66613.4 64263.1 52074.1 49530.7 38940.1 36715.7 28828.9 26623.2 18242.4 146339 53389.4 2787.04 2061.49 131642 127597 126813 122047
internal_count=1722801 792260 930541 649847 625877 600578 585980 555565 541713 511762 493816 434565 418593 373751 354876 291362 270909 215979 198840 158666 142013 99470 784392 280694 20828 17946 707010 687779 682850 660531
shrinkage=0.1


Tree=28
num_leaves=31
num_cat=0
split_feature=2 2 5 2 2 4 0 4 1 1 1 1 1 1 1 1 1 1 1 1 1 1 1 1 1 1 1 1 1 1
split_gain=1535.83 14759.9 1173.56 1068.26 7759.01 780.203 667.243 620.37 602.759 2970.95 930 3350.2 882.632 3879.47 788.103 4463.83 725.59 4998.3 687.007 4868.09 630.893 5012.94 648.866 4706.72 595.325 4143.79 579.522 3979.87 634.69 4155.39
threshold=1.0000000180025095e-35 0.99998057679780061 734.86494934294603 1.0001011059636042 1.9999378119080078 10.210091028978175 3987.5000000000005 19.720051499952898 4.0002983293903798 4.9314387179925356 5.0001909294964548 5.9997458260615675 6.0002168274823466 6.9999119637699208 7.0000232207247164 7.9791993952800926 8.0004853010685704 8.9999931022678368 9.0001071044519509 9.9857926420898071 10.000016891673031 10.969457995161383 11.000035595641149 11.999962074327003 12.000287474175687 12.99973531389041 13.000108525553943 13.999756211570203 14.000088007090467 14.999976204489768
decision_type=2 2 2 2 2 2 2 2 2 2 2 2 2 2 2 2 2 2 2 2 2 2 2 2 2 2 2 2 2 2
left_child=2 -2 6 5 -5 -3 -1 -6 -8 -10 -11 -12 -13 -14 -15 -16 -17 -18 -19 -20 -21 -22 -23 -24 -25 -26 -27 -28 -29 -30
right_child=1 3 -4 4 7 -7 8 -9 9 10 11 12 13 14 15 16 17 18 19 20 21 22 23 24 25 26 27 28 29 -31
